-8.959705353,2.337796450,-3.667860985,12.746531487,-3.637876987,-7.212382793,24.644699097,6.318121910,-30.677873611,-1.797597528,-2.123356581,-1.163818717,13.701065063,2.786559343,2.174263239,1.045469761,16.864156723,-6.360529423,-10.464122772,-3.999203682,-2.055197001,-8.499958992,16.024040222,-3.887115002,-3.825937748,1.275074601,1.674646020,-9.937955856,3.475213528,0.252332509,-1.023911595,-0.265056998,1.017244339,-1.144638062,3.879882097,-0.182337567,-8.434078217,3.498982906,-4.109402657,11.505573273,-3.687857628,-6.559424877,24.445205688,4.443506241,-31.490968704,-1.862466812,-1.599028945,-1.313570142,13.515352249,3.411554575,2.588872671,0.450421870,17.090549469,-5.593688011,-9.710722923,-4.182233334,-3.119607687,-7.672599792,16.833959579,-4.171255112,-4.428761005,0.905379236,1.945996165,-10.252804756,3.153966904,0.753353477,-0.258328050,0.375587553,0.364145726,-0.387028337,4.169356823,-0.346823215,-7.616345406,4.066927433,-4.129276752,11.390305519,-2.961865187,-5.759118557,25.460073471,-2.563843727,-30.833230972,-1.512411237,-0.915684283,-1.372296810,13.206438065,3.989154339,1.981413603,1.834333420,16.780412674,-5.811791420,-9.088126183,-3.108119488,-2.562032700,-7.871028900,16.532503128,-3.808943033,-5.621502876,1.542057037,2.380400658,-10.469278336,4.012281418,0.599873245,-0.718736231,0.457976758,1.033684850,-0.703308702,3.911715746,-0.216539368,-8.674757004,4.529081345,-4.292733192,11.599180222,-2.936214924,-5.218153954,25.838972092,-2.280186415,-31.844049454,-1.713603616,-1.093069434,-1.428226113,12.466514587,3.732462168,1.885284901,2.070221186,16.231281281,-6.099574566,-9.243404388,-2.742103100,-2.220525265,-7.557827950,17.200672150,-4.147765160,-5.360535622,1.968186259,2.339650393,-10.359586716,3.462179899,0.388906151,-0.367293268,0.533660710,1.056735396,-0.195470348,3.629149437,-0.064339422,-8.556589127,4.150765419,-3.515387535,10.755226135,-3.550328970,-7.661871910,26.527931213,0.308830589,-30.610370636,-1.662724257,0.745721877,-0.895751238,12.109148979,4.016181946,2.126565695,1.925383925,15.854326248,-5.711257458,-8.842843056,-3.119212627,-2.448722839,-6.939239502,15.355524063,-4.728456020,-5.574563026,2.556784630,2.060814619,-10.316043854,3.729643106,0.518271267,-0.725215793,0.007545665,-0.020437902,0.133492142,3.902745724,0.008417004,-8.332726479,3.996978283,-4.286853313,10.976766586,-4.574101448,-7.302886963,25.415975571,2.680752754,-31.888298035,-1.814257026,-0.044506978,-1.108073592,13.305197716,3.856309414,1.708493829,1.968733549,16.182247162,-6.408933163,-9.363911629,-3.274219751,-0.875936925,-6.001724720,14.677406311,-4.590453625,-4.724083900,2.800386906,1.639669299,-10.497059822,3.351008654,0.087763645,-1.051034093,-0.177850187,-0.067996599,0.264411420,3.634272337,0.046020277,-7.492013454,3.697285175,-4.598811150,11.446722984,-4.783386230,-7.853711605,24.414836884,6.577189445,-30.459835052,-2.229361296,-0.096818745,-0.955718815,12.974608421,3.902323484,0.768789470,2.647179842,16.784561157,-6.971253395,-10.072929382,-3.135753632,-1.221135139,-7.424873352,14.885419846,-2.983576775,-6.008971691,1.539136887,1.654518008,-10.493170738,2.889275789,0.580773830,-0.210870728,-0.230171025,0.387161344,0.670641840,3.258168936,-0.035699736,-9.547601700,3.818346024,-5.261392593,12.022271156,-5.047854424,-8.269676208,23.639678955,7.614338875,-30.111074448,-1.713556051,0.612835228,-0.875832558,13.113093376,3.887203693,1.369994521,2.587867260,16.469244003,-5.741307735,-10.369042397,-3.296088934,-1.840148568,-7.704462528,14.678754807,-3.021529913,-6.191534519,1.322444677,1.288843870,-10.505175591,2.293940783,0.602584422,-0.730609477,0.178737491,0.079567373,0.584098935,3.619008064,-0.367399722,-8.172292709,4.080213070,-5.046801090,12.699728966,-4.816274643,-8.764059067,14.001438141,8.540228844,-32.062965393,-2.040231943,0.948692560,-1.299812675,13.544818878,4.831035137,4.524988174,1.857866287,16.660810471,-5.213881969,-10.147441864,-3.054290295,-0.701616764,-6.870750904,15.012854576,-3.239191055,-6.538858891,1.213685036,1.545996428,-10.303430557,2.930667162,0.467941344,-0.135160029,-0.065195143,-0.392360479,0.729204178,3.976252079,0.015690813,-8.594187737,3.983639956,-4.601197243,11.822485924,-5.117535591,-8.325426102,19.416551590,9.334213257,-32.416748047,-1.767116189,0.648949683,-1.529396892,12.709034920,3.610275269,3.276788473,1.356612921,16.787763596,-5.934730053,-9.550566673,-3.312718868,-1.132167339,-7.476928234,15.978471756,-3.122790098,-6.377545357,1.837456465,1.495308042,-10.123045921,2.031832695,0.713430643,-0.575285852,0.317341894,-0.441838503,0.554973841,3.557704687,-0.038874865,-8.388281822,4.018076897,-4.816600323,10.969230652,-6.179872513,-8.055249214,24.581312180,7.857646465,-31.947645187,-2.150817633,0.726528823,-1.081752062,13.687547684,3.627089500,2.278028727,1.492731452,15.511957169,-5.629995823,-10.093246460,-2.510608196,-0.896450639,-6.738852024,14.135128975,-3.970946312,-4.832666874,2.772857189,1.435328007,-10.535310745,2.503437519,0.841595411,-0.239228219,-0.470769376,0.579663157,0.216503114,3.825696468,0.025365157,-9.878543854,4.028908730,-3.730661154,11.505394936,-6.151281357,-10.034005165,24.357933044,7.686032772,-29.843423843,-2.446821213,0.272158533,-2.115939617,13.267574310,5.334466457,2.955791473,0.854848385,14.414868355,-5.624371052,-10.536110878,-4.695744514,-0.697673976,-6.670236111,13.738921165,-1.594342232,-5.185227871,1.750501990,1.845414639,-10.490225792,2.618316889,0.813245118,-0.521226645,0.362523466,0.277599752,0.133848056,3.676825762,-0.701380193,-19.541620255,4.725332737,-4.359603405,11.716900826,-5.608201981,-8.010973930,25.088567734,5.968210697,-29.987710953,-2.697577953,1.803277016,-0.343198240,13.107342720,5.098190308,3.057900429,0.323735654,15.461859703,-6.098022461,-10.661859512,-4.866169930,-0.563473225,-7.488067150,16.187528610,-0.463797569,-4.726137638,2.154391527,1.516550303,-10.137561798,3.122421265,0.818572223,0.207410589,0.640253246,0.864753067,0.196617842,3.432568073,-0.687143803,-27.648517609,4.191197872,-3.835111380,12.066488266,-4.126613617,-7.000009537,25.029649734,7.339841366,-30.500261307,-1.434485197,1.766262531,-0.911651969,14.166756630,5.692543507,3.857498646,1.464506388,15.655136108,-5.194022655,-9.746700287,-4.896058083,0.505657315,-7.937619209,16.132905960,-1.466665745,-4.899702549,1.265719414,2.104240894,-9.808647156,3.220996618,1.103868246,-0.516928971,0.818616390,-0.181893989,0.825163364,3.600424767,-0.600927472,-27.877744675,3.664443731,-3.195401907,12.705924034,-4.743127823,-8.602306366,26.015630722,7.063636780,-30.318353653,-1.349241018,0.995007336,-1.302647710,12.819033623,6.351104259,3.422540188,1.386604786,17.196949005,-4.465327263,-9.427396774,-3.610697508,0.199176118,-7.751630306,16.369770050,-1.226288915,-5.263925552,1.431163073,1.698470831,-10.348194122,2.587495089,0.906893015,0.262173951,0.847253382,-0.061468910,0.182193801,3.658147335,-0.587901890,-26.987083435,2.867919445,-4.128727913,12.550252914,-3.019270182,-8.466314316,25.494333267,7.940742016,-29.589338303,-1.909103751,0.701183081,-1.015722513,13.359537125,5.417380333,3.868771076,1.614307880,16.429710388,-3.826857805,-10.342049599,-3.895363092,0.332292318,-8.415099144,16.354888916,-1.532664895,-4.890437603,1.833733678,1.582486033,-9.726909637,2.037833452,1.062536955,-0.496409178,0.465943068,1.037271142,0.657309055,3.913124323,-0.410452634,-23.731847763,4.211273193,-3.874622822,12.159248352,-4.633971214,-8.533370018,24.337022781,8.451237679,-30.555545807,-1.986629009,1.562369227,-0.891319215,11.608763695,4.156463146,3.147030830,1.358114123,16.901968002,-4.588530064,-10.833856583,-2.130032301,-0.155687228,-8.389180183,18.166048050,-2.479698658,-4.764248848,0.983794510,1.307936311,-10.141116142,1.921802759,1.202004313,0.185313612,0.596778989,1.010308266,0.774220347,3.715013027,-0.797482371,-21.544107437,4.211732388,-3.893782854,12.297671318,-6.170084476,-9.937420845,25.585437775,9.817110062,-29.703084946,-2.190210581,0.653961420,-0.524004102,12.369033813,1.525248647,2.002469540,1.879294038,15.297315598,-5.069715023,-10.305985451,-2.428061962,-0.943115711,-7.394981384,17.334213257,-0.701512098,-3.319977999,0.539173961,1.906629682,-10.517959595,3.675306559,0.552649260,0.488323212,0.808583021,0.640204847,-0.034239743,3.898329496,-0.469267696,-20.904659271,5.106918335,-4.082228661,11.539071083,-4.884164810,-8.916850090,26.176265717,9.113505363,-30.714731216,-1.526012659,1.729906917,-0.841257334,14.055767059,-1.144226670,1.827972174,1.522861838,17.185247421,-6.473498821,-10.941758156,-2.670894384,0.531438172,-8.294724464,16.137994766,-0.480381101,-3.611140966,0.891602993,1.855103135,-10.333027840,3.231908321,0.443264872,-0.371210843,1.600924730,0.782648742,-0.639340103,3.800881386,-0.768633246,-19.465261459,5.085672379,-4.464076996,11.465458870,-4.047925949,-7.879583359,26.568758011,9.148963928,-30.887937546,-2.091030121,2.010974884,-0.253193051,12.336357117,-4.431912422,2.308153152,1.135197759,16.310785294,-4.042593002,-11.278976440,-3.058225393,0.578200638,-9.205905914,17.100450516,-0.689603508,-3.957023621,0.812813103,2.060911655,-10.405893326,3.415239573,0.903514981,-1.282884836,0.887171209,0.091109335,-0.111587316,3.757970095,-0.723471701,-15.042286873,4.999092579,-3.762293816,13.290547371,-4.926755905,-8.363821030,26.313121796,8.524578094,-30.003284454,-3.079438210,2.523468018,-0.919055104,12.786726952,-5.383533001,1.863391519,1.083681464,14.665365219,-5.827770710,-10.328988075,-2.803990602,-0.030854922,-6.063838482,16.744421005,-1.174367785,-4.269333839,1.507570863,1.718085289,-10.701335907,4.572030544,0.049399894,-1.145482540,0.632122576,-0.314618200,-0.061985601,3.625928879,-0.362511277,-12.980334282,5.272022247,-4.622233868,11.879464149,-3.370522261,-6.395306110,26.176456451,8.510405540,-29.870731354,-4.009537220,0.025499972,-0.323865920,12.917274475,-9.048765182,1.923930168,1.558354259,14.941162109,-5.173892975,-9.193102837,-2.838166475,1.428028584,-8.440505981,17.941709518,-1.476010442,-4.704133034,2.373818398,1.435381532,-10.691440582,3.204290390,0.842215836,-1.077429295,0.928105652,0.071714677,0.029961862,3.830361128,-0.761878252,-10.620538712,5.285081863,-3.928958893,10.462615013,-3.128856182,-6.115221500,25.136043549,7.747072697,-30.139867783,-3.189701796,-0.308621794,-0.845764875,11.474534988,-10.435790062,2.355900049,1.318325758,16.092084885,-5.063515186,-9.334350586,-3.262819767,1.437234044,-8.195157051,18.413455963,-1.779080272,-4.097654819,1.285908937,1.482715249,-10.633678436,4.115290642,0.498002201,-0.583709061,0.262356311,0.579920709,0.715865314,3.554467201,-0.471367389,-7.193819046,5.318286896,-4.753474236,11.810665131,-4.249692440,-7.336088181,25.351718903,8.027077675,-30.055561066,-2.136145353,0.635113955,-0.183745086,12.598463058,-12.392457962,2.093078375,1.615367055,16.140899658,-5.382504463,-9.951849937,-2.874613285,0.591934383,-9.146861076,17.643377304,-1.721522927,-5.011779308,1.718618751,1.739259720,-10.463560104,3.789373398,0.759139299,-1.715947509,0.182244688,0.731606543,0.251408041,3.980457783,-0.887864769,-6.739051819,5.536478043,-4.519716263,11.318500519,-4.573889256,-6.752200603,25.131786346,7.401711941,-29.903789520,-1.667013645,0.772122145,-1.248453736,13.092343330,-14.660430908,1.944049835,1.720965981,15.850094795,-5.101846695,-9.871421814,-3.240516663,0.468927592,-8.156475067,18.444936752,-1.160577893,-4.106976509,2.097319126,1.880641103,-11.378719330,3.729218483,1.276689649,-1.452812195,0.306085259,0.900429547,0.648839593,3.429067135,-0.627160490,-6.789815426,5.316379070,-4.425911903,10.932173729,-4.054648399,-6.202503204,25.659374237,7.396970749,-30.118112564,-1.451819777,0.588480830,-0.597207785,13.406232834,-14.783044815,2.461155653,2.906388521,15.148406982,-5.447802067,-10.354849815,-3.500302792,-0.361954004,-8.824363708,18.960010529,-1.105043769,-4.616056442,1.619342089,1.828703761,-10.468214035,3.231231689,1.078187466,-1.444818377,0.658460259,0.461713672,0.737425506,3.902558565,-0.502077281,-8.439883232,4.641972542,-4.430551052,11.469031334,-4.887156010,-6.472579956,25.727090836,7.429783344,-30.365707397,-2.833462238,0.705788553,-1.002554893,13.382351875,-5.799416542,1.334046125,2.601510525,14.949314117,-4.827117920,-10.983410835,-3.462242365,-0.067318991,-7.369540691,17.735195160,-4.116855145,-4.356306553,1.870711684,1.718284845,-11.632870674,3.114182472,0.302886844,-0.577187181,0.104751036,0.742263377,0.800464034,3.525249958,-0.611651719,-8.884354591,4.761898994,-4.819925308,10.793447495,-4.920570374,-7.219990730,25.055978775,6.809694290,-31.131465912,-2.659413099,0.145988464,-0.456830800,12.862280846,4.009582520,1.598450422,1.384892821,13.833951950,-4.201245785,-10.910480499,-3.725413799,0.003110010,-8.669739723,16.473327637,-3.865411758,-4.883208752,1.285623431,1.342949390,-11.238489151,3.413191080,0.973531663,-1.248016715,-0.114707001,-0.273609132,0.427107990,3.411485672,-0.824514568,-8.571887970,4.594132423,-4.593354702,10.952332497,-4.366169453,-7.151948452,24.814491272,7.702163219,-30.518760681,-3.043777943,0.269757360,-1.049601793,13.240216255,4.433722496,1.726567507,1.828951478,14.312041283,-5.748312950,-10.501567841,-3.534158707,-0.105770640,-8.803953171,16.796787262,-3.992357731,-4.957436562,0.982409894,1.289130330,-11.283944130,3.433039188,0.989152133,-1.503475070,-0.248685688,0.069319189,0.633944571,3.223140955,-0.006929127,-8.185741425,4.566304684,-4.773545265,11.448732376,-5.118391991,-7.308791637,24.363554001,7.063824177,-31.249694824,-2.830822945,0.149038866,-1.531077504,12.827489853,5.379894733,1.960988522,1.859431505,14.168115616,-4.643398285,-11.220837593,-3.825015783,-1.572809935,-9.725841522,16.189035416,-4.051999569,-4.473436356,1.475392699,1.546951771,-11.627305031,3.504728317,1.154140830,-1.132764578,0.726306796,-0.172072902,0.505479634,3.546196222,-0.037784819,-9.607276917,3.438417673,-4.994925499,12.490476608,-5.400916100,-7.575160980,24.836111069,8.579610825,-31.603578568,-2.046480894,-0.851132631,-1.599381328,12.797056198,5.297001362,1.209145904,1.177664638,16.800054550,-6.103444576,-11.156064034,-3.948125124,-0.506322980,-7.764760971,16.813899994,-2.753842115,-4.964756489,1.236758590,1.228411794,-10.930323601,2.923807383,-1.074231625,-0.287007779,-0.913872719,0.872941375,0.576389134,3.549198866,-0.305269778,-9.603922844,4.400017738,-5.086283684,12.063122749,-4.970483780,-7.714982033,23.446228027,8.155595779,-31.048601151,-2.230216026,-0.348840147,-1.156271935,13.148026466,4.508560181,0.313778549,1.184058189,16.233882904,-6.497699738,-10.916384697,-3.231119633,-1.100985289,-6.445801735,14.674151421,-2.521970749,-4.864345074,0.626267672,1.040769577,-11.050622940,2.761024475,1.024133921,-0.435267508,0.869981885,0.510224819,0.498524934,3.498133421,-0.350735068,-9.264312744,3.916777372,-5.016434669,12.503285408,-6.266148567,-7.121923447,25.240205765,3.362880230,-32.204338074,-2.187484980,0.434700191,-0.662245095,13.863758087,4.990730762,1.411443830,1.845035195,16.094654083,-4.466153622,-10.830080032,-3.441211462,-1.362182856,-8.940560341,17.305791855,-2.337602615,-5.229417324,0.797980666,1.705525279,-10.890748024,3.114071846,0.638037562,-0.705478847,0.751133919,-0.521977067,0.087772675,3.466519356,-0.094045408,-8.263091087,4.477566242,-4.512724876,11.419749260,-3.726518869,-6.162514210,26.282379150,-2.912627220,-31.445730209,-1.847660184,0.924572825,-0.458917111,12.621879578,4.295047283,1.254486084,1.222094655,16.044050217,-5.902945518,-10.397826195,-2.891038179,-2.331737280,-6.733762264,17.308372498,-3.486152649,-5.432367325,1.798979402,1.962990403,-10.702165604,3.003945351,0.539119124,-0.363724530,0.762344480,-0.132601112,0.416597486,3.654231310,-0.189314708,-5.780632496,5.578416824,-5.152503014,12.340277672,-5.027104855,-6.590680122,24.358327866,-10.687493324,-31.089857101,-1.372232795,1.432084322,-0.651329041,13.003145218,5.589467525,2.683132410,1.866619706,17.007356644,-5.460601807,-9.829096794,-2.640814066,0.017358875,-18.265783310,18.329732895,-2.579331636,-4.235756397,2.405734777,2.598295450,-10.210119247,3.340984583,1.176750660,0.660580397,1.293327570,0.607774019,0.679482520,3.863944530,0.018115930,-2.052827835,8.145432472,-3.661413193,13.624631882,-8.047431946,-5.831573486,27.214019775,-16.654050827,-29.665134430,0.169336826,1.690665245,0.450811744,14.574601173,9.715361595,6.582694054,2.783424854,18.681921005,-3.807939529,-5.344208717,-2.284495831,2.075469017,-14.349224091,-29.984432220,0.036666434,-2.787838221,2.772840023,4.744811535,-8.551221848,3.931287289,2.627485752,3.434050322,1.834173322,1.057995200,1.391949296,5.042924881,0.188504755,-0.801281989,10.332313538,-2.075152874,14.311899185,-42.192398071,-2.843973398,26.746128082,-18.195331573,-29.784570694,1.723822117,3.554477692,0.711138129,16.689325333,10.756239891,9.715608597,4.023148060,20.468698502,-1.295819521,-2.045520544,-0.461282700,3.261768818,-0.692011476,-58.031513214,4.141387463,-2.025626421,4.941768169,6.507668972,-6.677075386,4.833979607,3.358554363,5.064711571,5.663250923,1.944494486,2.198098183,5.829439640,0.196438864,-0.794561028,8.839845657,-4.032151699,14.798891068,-34.312004089,-3.619240522,26.670469284,-12.224009514,-28.797166824,1.294601917,2.705640078,0.501886368,17.030099869,7.942801476,8.166428566,2.327865124,20.262735367,-0.977873445,-3.368593931,-1.101329446,2.711188316,-0.513908386,-51.038967133,2.636187792,-2.020815134,4.138140202,5.466666698,-7.492741585,3.164793730,2.011765718,4.413065434,4.017425537,1.929264903,2.149206161,5.751713753,0.198691338,-1.231105447,9.482286453,-4.715542793,12.917391777,-21.974967957,-3.325568438,7.152138710,-3.079667091,-27.682090759,0.722308517,2.874664783,0.787864566,17.288541794,3.654670715,10.159138680,3.137789488,20.633556366,-2.004311323,-3.763913870,-0.984287977,2.884749889,-2.394877911,-45.808052063,2.852274895,-2.087381124,4.076602936,4.814316273,-7.869175911,4.000577450,1.971236587,4.168301582,3.713128328,1.924970150,1.509185195,5.120628834,0.190270007,0.118082702,9.556539536,-3.933669329,14.403926849,-8.789186478,-3.378747702,-28.370616913,4.268460274,-27.671508789,0.319178909,2.239851952,0.820365608,17.663234711,-3.928428888,15.942087173,4.029890537,20.847522736,0.547835827,-3.842319250,-0.635998011,2.600836754,-1.684635997,-39.263912201,4.011609554,-1.618093848,4.134161949,4.787127495,-7.411026001,3.747783422,2.825865507,3.531743526,4.177359104,2.394119501,1.109081388,5.144083500,0.540556371,-1.081011295,8.082042694,-4.839048386,14.191517830,-6.103524208,-5.790518284,-2.140375137,9.043334007,-27.709163666,-0.482971430,2.677352428,0.527124941,16.483119965,-10.513830185,9.654838562,4.479921818,18.750940323,-1.032954335,-5.369675636,-1.133904099,2.833802462,-2.972059250,-34.783458710,2.310494184,-1.469373941,3.735029221,4.204064846,-8.126624107,4.013581753,1.940924764,2.618137360,2.519756079,1.083117723,0.797005415,5.197099686,0.501784742,-3.688398600,7.412766457,-5.641389847,13.185847282,-2.862806797,-5.843573570,18.572513580,10.312860489,-28.954498291,-0.406763703,2.391001940,0.115761861,16.422397614,-19.446784973,6.440835953,3.331894875,17.339170456,-1.671199441,-5.920916080,-3.378282547,2.846789122,-5.273055077,-27.087383270,1.549841046,-2.081764221,3.365924120,3.069363117,-8.896138191,3.818100214,1.871408105,1.201936245,1.739700079,0.246626034,0.237822801,4.389299870,0.211384296,-3.015368700,8.251757622,-5.867972374,14.063252449,-2.664749146,-5.589209557,25.302423477,9.718588829,-28.411773682,-0.832747042,2.206584215,0.380320042,16.587606430,-28.729860306,5.243808270,2.139610052,18.702857971,-2.211338282,-6.019724369,-2.867695808,3.326624393,-7.330823898,-21.356031418,2.043053150,-2.922426462,2.857133627,2.995800495,-8.722485542,3.203391790,1.613961220,1.156373262,1.473113656,0.174961045,1.652004719,3.929245472,0.057937019,-3.610657930,8.234099388,-5.409403324,13.906352997,0.446226567,-6.001746655,26.843534470,11.004480362,-27.905647278,-1.693983674,3.274731636,0.279752314,16.472934723,-33.587516785,6.269699574,3.476431131,19.842926025,-3.297172308,-5.670238972,-1.480077147,4.403905392,-27.899810791,-10.564762115,2.026659250,-2.726188421,3.625170231,3.661123753,-8.730817795,3.153538227,1.681802750,0.409554511,1.501628876,0.657815337,1.275220990,4.594265461,0.700814128,-5.166291714,8.131223679,-5.642970085,14.114955902,-1.440804720,-5.845615864,28.223976135,10.958803177,-26.763429642,-0.841702104,3.501399994,-0.337106645,15.961133003,-42.501762390,6.234859467,3.710090399,18.885644913,-2.324696064,-5.719694138,-1.309954047,3.609789133,-24.101621628,-3.365326643,2.993986607,-2.379670858,3.883146524,3.535565376,-8.670727730,3.189147472,1.102412462,1.819220185,0.079425164,1.173577309,1.074540615,4.468598843,-1.427307963,-8.639927864,7.861007690,-6.495218754,13.911062241,-0.176270396,-7.367232323,26.867769241,11.957469940,-26.759174347,-1.066039801,3.604578733,-0.217686027,16.313737869,-49.123588562,5.171596527,3.616201878,19.196392059,-4.812472343,-5.813429832,-1.770181417,3.695094109,-11.613956451,2.470556259,3.576630831,-2.164978266,3.085728884,3.190196276,-9.072420120,2.505556107,1.102824569,1.401572704,0.961493850,1.251744270,1.406458020,4.395208359,-2.019210339,-12.701725960,7.246303082,-7.376902580,13.850460052,-1.393164158,-8.785633087,26.381061554,11.948282242,-26.008911133,-0.820573628,3.043528080,-0.835502028,15.927416801,-44.769428253,5.047100544,3.705938339,17.234693527,-4.142239094,-7.158586979,-1.765792608,3.643181801,-9.658173561,10.295446396,2.927512646,-3.641347885,2.697085619,2.586298466,-9.241654396,2.629738331,1.767383695,0.598938346,1.112383604,1.578928709,0.360222846,3.979692936,-1.241694689,-14.764269829,6.439675331,-7.834931850,14.197399139,-2.301007271,-12.501472473,25.313093185,11.043077469,-27.048927307,-1.151237726,2.844738007,-1.120801091,14.441148758,-39.472400665,5.204790115,3.155078411,18.472661972,-3.986740589,-8.388893127,-1.559538364,2.398494244,-7.763229370,18.398658752,2.277390480,-3.290495157,3.639617920,2.498217583,-9.737442970,3.443379641,1.860649109,0.269086570,0.019556541,0.399889112,0.266932487,3.978397131,-0.934701025,-18.236679077,7.137262821,-7.986485481,14.026664734,0.171447694,-28.890239716,26.725498199,11.841132164,-26.363580704,-0.558825016,4.241419792,-0.362128109,15.543987274,-32.094135284,5.344050407,3.313452244,17.247518539,-5.871559620,-7.621784687,-0.941933155,2.214460373,-6.026660442,18.770109177,2.103202105,-2.976067781,3.595071316,2.591104984,-8.744601250,3.877802134,1.165013552,-0.493520170,0.934676409,1.347006440,1.074805260,4.346611977,-1.286898732,-20.379777908,7.519356251,-6.712535381,14.782468796,-0.082966208,-34.294448853,27.978160858,12.771936417,-44.217418671,0.043948118,11.635002136,0.544510543,14.737464905,-24.015188217,6.597211838,4.943522453,18.209484100,-19.384969711,-7.378735065,-0.075424954,2.452229500,-2.969901085,20.083547592,4.454790592,-1.202310324,4.941304207,2.982084751,-8.046908379,4.913205147,1.798417211,0.999486089,2.742716074,0.321264565,0.761648059,4.869318962,0.167414248,-28.369192123,6.682668686,-6.912718773,14.205451965,-0.624758542,-8.028839111,27.304466248,11.431770325,-54.405788422,-0.198383197,4.612836838,-0.224138066,16.168203354,-20.136272430,5.980895042,4.273756027,17.113439560,-6.006281853,-7.026345253,-0.616734803,0.038803693,-5.885700226,18.322090149,2.849983215,-1.851696253,4.368145466,2.635378361,-8.959797859,4.712231636,1.924948573,-1.225167394,1.767121792,0.789772868,1.294303656,4.383821487,0.107195556,-36.036018372,5.659232616,-7.092406273,13.105765343,-1.443976879,-6.144287586,26.016216278,10.729980469,-27.932424545,-0.604502499,1.917972684,-0.726086497,15.140241623,-12.378649712,5.220365047,2.598593235,18.319307327,-5.970732212,-8.653916359,-2.183832884,-2.114831448,-7.036756516,17.253492355,-0.077711843,-3.239418268,3.483441830,1.972875118,-10.043649673,3.744440079,0.942333639,0.809798956,1.171232581,0.545435309,0.979403198,3.817648888,-1.061992168,-40.586761475,5.234050751,-5.724781513,12.299174309,-1.166958332,-5.126681805,25.844432831,10.095797539,-28.190898895,-1.642646074,1.533737779,-0.814557374,16.046504974,-7.780076981,5.820053577,2.669245005,18.234157562,-5.504242420,-9.163678169,-2.041512728,-5.016680241,-7.197606564,18.639781952,0.529344141,-4.206478119,3.633891106,1.915591836,-10.484620094,3.974106073,1.452351093,-1.716680765,0.727895498,1.225278616,0.756714642,4.148780346,-0.700199246,-46.728118896,6.196322441,-3.469051600,14.097204208,-2.218839169,-4.828093529,25.712602615,10.119900703,-27.571762085,-1.062425852,1.936367989,-1.202733636,15.718260765,0.029715095,6.930895329,3.507217884,17.583454132,-4.669697285,-6.347415447,-2.349601030,-11.181168556,-5.708624363,18.000331879,-0.080977440,-3.920810223,3.701876879,2.337459326,-9.694272041,2.253974438,1.180950403,-5.300218105,0.813762426,0.760618210,1.311376691,3.837254286,0.004357234,-41.586208344,5.967155457,-2.190620899,14.181807518,-2.246931791,-4.342175007,26.874473572,7.419301510,-25.961641312,-0.516271591,3.277860880,-0.519428313,16.451381683,2.734503984,8.231282234,3.289919853,17.782323837,-2.865791082,-2.978571415,-1.658197165,-19.900896072,-5.628139496,18.523786545,1.118943334,-2.220686674,4.761483192,2.532786131,-9.901065826,4.219802380,0.927779317,-24.679777145,1.365129590,1.391990185,0.733774722,4.500078678,-0.192731872,-34.439178467,5.852942467,-1.196113348,15.543074608,-1.534493089,-2.912472963,27.437047958,7.415057659,-25.950784683,-0.665917277,3.808297873,0.115002535,15.801738739,6.966997623,8.065235138,3.812479973,17.432308197,-1.919831514,-0.819936812,-1.949467778,-25.820085526,-4.576774597,18.548589706,0.135226235,-2.610448599,4.510978699,2.485815287,-9.768624306,3.547742367,1.441261292,-36.364269257,1.019900084,1.103485227,1.038515925,4.094331741,-0.221513867,-25.136487961,5.160016537,-2.632686377,15.480315208,-2.276573181,-4.782740116,25.791673660,5.779622078,-27.808822632,-1.761184454,2.687411547,-0.216702804,14.642799377,6.693189621,7.179316521,2.778743267,17.312883377,-3.895971298,-8.624734879,-2.373707533,-36.662124634,-4.916166306,18.858253479,-1.983503699,-3.934972048,3.141458273,1.898566723,-10.538101196,4.027236938,1.270896673,-2.174364090,0.256579757,1.209652543,0.970277667,3.908200264,-0.320737332,-16.141984940,5.090643883,-3.185898304,14.747839928,-3.106469154,-5.864289761,25.957958221,7.060054302,-28.435283661,-1.921813965,1.958518028,-1.435933113,13.931261063,3.882514238,5.831725121,2.844702482,16.455078125,-3.857131243,-9.854439735,-2.489542723,-29.355220795,-5.764085770,19.093685150,-2.231741190,-3.780736446,2.894789219,1.217074394,-11.123590469,4.090986252,1.100469947,-0.893912673,0.889078736,0.458797902,0.833222747,3.729551554,-0.810752451,-14.213144302,4.572794914,-4.363872528,12.269982338,-4.313717842,-7.301400185,25.228567123,5.859326363,-30.632661819,-2.160581589,0.993938804,-0.311143726,13.034689903,5.040284157,1.728615642,2.388700247,14.760608673,-5.132289886,-10.821031570,-2.889913797,-1.802197456,-7.341521263,16.892990112,-3.016179800,-4.374403477,1.003213048,1.049104333,-11.510503769,3.005768061,0.928799570,-2.155841112,0.898358941,0.248805627,0.228298232,3.372797251,-0.672876000,-13.444099426,4.565546513,-4.281072617,12.203598976,-4.645852089,-6.199687958,25.490207672,6.584554672,-31.091932297,-2.742229462,1.103443623,-1.750742316,12.978556633,4.775179386,2.441167593,2.027273417,16.322645187,-5.002668858,-11.533884048,-3.447562218,-1.749373794,-7.100468159,16.671974182,-3.029065371,-4.036061287,1.550001144,1.135656595,-11.157116890,2.959834814,0.221603483,-1.865929246,0.252916008,-0.531835616,0.102985017,2.998780727,-0.883156657,-5.520389557,4.725274563,-9.344914436,13.945419312,-1.630459905,-5.747288704,5.696977139,9.753087044,-29.326839447,-0.726615608,0.068982244,-1.554361463,13.276739120,-17.285617828,3.593098640,1.454944253,17.933090210,-3.300722122,-7.952672005,-1.226871014,-0.448757946,-4.580452919,18.437978745,0.392698079,-2.721238136,0.979062974,2.450137615,-9.859690666,3.407579422,-0.089613244,-0.107343674,-0.759676158,1.315191150,1.176067233,4.535706997,0.122360259,-4.354979038,5.463278770,-14.150284767,13.583828926,-1.296021342,-5.361023903,5.356321335,10.970332146,-28.471755981,-0.811757207,0.886367142,-1.430017829,13.549848557,-27.772476196,3.464187145,1.982157111,18.682983398,-1.908499599,-7.146697998,-1.500155687,1.194572926,-5.749013424,20.359350204,2.069213152,-4.001254082,1.366194725,2.793866158,-9.821773529,4.731694698,0.581621885,0.754379153,0.172988892,1.418847322,1.407734036,4.562091827,0.356608719,-4.000670433,6.141713142,-22.314002991,15.011925697,1.018441439,-3.367292881,10.430073738,10.798171043,-28.363063812,-1.643187761,0.605260193,-0.640023053,11.953598976,-32.264694214,5.855073929,3.284162283,19.255876541,-2.338320971,-6.895693302,-1.194940329,2.081404924,-4.382850647,20.454431534,2.435542583,-3.318307161,0.300217867,3.264441252,-9.095675468,4.553232193,-7.879842758,1.105059147,1.594010234,1.080129385,1.391394973,4.386241913,0.254558235,-2.549571276,6.688373566,-29.681751251,14.941647530,0.656632364,-2.567882061,16.003973007,10.172318459,-27.788824081,-1.309470654,1.490818143,-1.201506376,14.095649719,-29.591201782,6.445951939,3.281661987,18.874641418,-7.310811996,-5.460402966,-0.574774683,3.933015823,-3.855968714,21.807098389,-2.432243347,-3.498884678,-0.425194800,3.594558239,-8.807119370,4.644984722,-10.766353607,0.853447199,2.375895023,1.179579020,1.277765274,4.912817478,0.295303673,-1.787744164,6.620461941,-37.339900970,15.169208527,1.316892147,-2.212790489,20.436601639,10.167489052,-25.397026062,-0.463909447,3.008334637,-0.425513715,14.118340492,-22.784667969,7.515336514,4.123300552,19.004152298,-10.665896416,-5.084751129,0.524781227,5.540990353,-0.302254915,21.312000275,-26.223804474,-1.842064500,-0.525854886,3.627381086,-8.070184708,4.643288612,-3.216247082,1.056245327,1.747765899,0.794697821,2.094083786,4.698654175,0.623571217,-3.005191803,7.195630074,-44.067676544,15.905436516,0.810031950,-2.126448870,24.820194244,10.269076347,-24.841278076,-0.095450364,3.704742193,-0.124486454,14.217935562,-19.062831879,9.778694153,4.383549690,20.203874588,-3.158761501,-4.390641212,0.363623619,6.488959312,-8.712823868,21.985897064,-25.042253494,-1.517784119,-1.169454932,4.138324738,-7.446619511,4.802720547,0.882695794,2.393896341,-18.320011139,1.141791701,1.896858335,5.310024738,1.100448251,-2.636060238,7.093122482,-43.104675293,16.405017853,-0.927532434,-3.403996468,25.282533646,10.352369308,-26.871091843,-0.292627633,3.904250145,1.305569291,15.180602074,-16.124351501,10.258090019,3.740675211,19.483047485,-1.640385032,-4.345933914,0.676927447,7.064407825,-23.120521545,19.297756195,-4.206388950,-2.385067701,-2.954653263,4.005697250,-7.442954063,5.038907051,0.830533206,1.526560426,-20.895832062,1.544645190,1.697455525,4.998250961,0.643571198,-2.978221416,6.301840782,-40.432361603,14.744112968,-8.331367493,-3.754738331,25.042886734,9.064882278,-26.672204971,-0.677417159,2.433105230,0.923594236,14.898053169,-13.871569633,7.613703728,2.981414318,18.564079285,-2.573508978,-5.852663517,-0.354279280,4.692727089,-14.634128571,15.624044418,1.229909420,-2.601197481,-5.686306953,3.119680405,-8.177081108,4.500253201,1.374236584,0.803124428,-5.059680939,0.638298392,1.979328275,4.675131321,0.334874332,-15.721436501,7.348083019,-37.445278168,16.257535934,-12.499971390,-3.229082108,25.200973511,5.156146526,-25.513202667,-0.444998384,3.589475155,0.094134361,16.988054276,-10.121595383,6.993735313,3.628006458,18.382347107,-1.191536665,-5.614079952,-0.407294810,4.231502533,-3.746617079,13.045472145,2.554754734,-2.065108776,-8.311009407,3.322993279,-8.254192352,-3.737946033,1.191435933,1.750676751,-0.164901599,0.862737834,1.771921992,5.209919453,0.969954848,-7.823696613,7.606035233,-33.570083618,16.643714905,-18.376129150,-2.386034727,23.579235077,1.805554867,-26.203445435,-0.386603981,4.822562695,-0.329022944,15.412513733,-7.218152046,7.879788399,4.052700520,18.851989746,-2.792052269,-5.218310356,-0.121517241,3.808666468,-2.861322641,12.267167091,3.035926580,-1.922291040,-8.844899178,3.381867409,-7.836513996,-12.431153297,0.925329924,1.867416382,1.014602184,0.989924908,2.394292831,5.229201794,1.300371408,-3.513652802,9.422239304,-30.747314453,15.903747559,-21.099430084,-2.415244579,9.845099449,-0.084587686,-25.310848236,0.117042720,6.408692360,-0.398396641,15.449691772,-2.213957310,12.359485626,4.968604088,17.890949249,-2.441164255,-4.266242504,0.833817303,3.437027931,-2.406025887,9.542815208,4.938341618,-1.039300799,-8.987136841,4.119900227,-7.007168770,-22.354373932,1.755545139,2.380174637,3.515336275,1.582389712,2.594658375,5.566517353,1.263637424,0.582652390,10.405285835,-28.708740234,17.735675812,-24.741682053,-4.122119904,-5.506240368,-1.471884608,-23.302774429,0.227986187,6.948409557,1.440643907,17.161897659,1.926739573,11.823187828,5.718144417,20.936439514,-1.535143971,-2.408556938,1.431744456,4.197802067,-2.011276007,9.432502747,5.351948261,0.421946377,-8.940289497,4.923750401,-6.420659542,-31.695682526,2.519021034,1.731706142,4.438632488,2.083979845,2.277947187,6.600261688,1.349426150,0.293573409,10.929161072,-25.555009842,18.552360535,-30.303852081,-7.089231491,-1.627805948,-3.527600765,-20.501720428,1.072341084,7.866858482,1.969120264,17.756376266,5.084764481,1.706766963,6.541162491,22.315317154,0.440100163,-0.378430843,0.592035532,4.059877396,-2.967684269,8.029298782,7.258334637,0.320758849,-7.996572018,4.912692547,-5.645843983,-38.588092804,2.579346418,3.550228357,4.825223446,2.762189388,3.158339977,7.045154095,1.797306895,1.378403425,10.473174095,-25.461578369,18.503385544,-32.079040527,-15.810848236,10.379944801,-8.028897285,-20.082645416,1.592133760,8.683021545,0.905228436,18.091686249,7.307543755,7.205708504,6.849858761,21.181175232,0.725682735,-0.354294777,1.172902107,-0.189586908,-5.690108299,5.913560390,7.531459808,1.107195973,-10.590106010,5.710564613,-6.454429150,-32.252643585,2.983566761,3.430088282,4.463809490,2.204567432,2.173231125,6.434908867,-0.045031164,-0.103130534,10.576286316,-23.434198380,19.910219193,-26.773674011,-27.871746063,24.784528732,-7.112782478,-28.025459290,1.562936783,7.828126907,1.275823712,18.633457184,8.474838257,11.187174797,6.182456017,21.384395599,1.529250622,-0.166462868,1.742374778,-4.717400074,-13.380803108,3.970878363,8.000290871,1.329435825,-10.810089111,5.717186928,-5.252343655,-28.065013885,3.793195963,3.619355679,4.119266510,2.481743097,3.202973843,6.199471474,-0.008457752,2.694196939,12.339778900,-22.560359955,20.904573441,-28.852539062,-26.449838638,29.598522186,-0.439089835,-40.445690155,2.134559870,9.894552231,1.950693965,18.202304840,11.336810112,13.454196930,7.152115822,22.960178375,1.406371832,0.277116328,2.575234413,-10.926737785,-20.193532944,4.471778393,9.603095055,2.763319492,-10.466711998,5.914450645,-4.731976986,-21.999273300,4.225391865,3.776345491,4.376635551,2.379557133,4.160935402,6.962519646,-17.923704147,2.889295101,13.034056664,-20.276380539,22.368934631,-20.107070923,-17.564054489,30.336935043,7.509863853,-49.104118347,2.839563847,11.473045349,2.915694952,19.632894516,13.527924538,15.764012337,8.141538620,23.076210022,-0.567411482,-0.044372018,4.084457874,-20.000289917,-25.372266769,1.437411666,10.037174225,3.136756182,-10.738540649,6.119369984,-3.202900410,-17.485424042,4.047821999,4.197959423,5.752167702,1.803662419,4.229851723,6.816054344,-40.812049866,3.184034824,10.764337540,-20.241697311,20.185672760,-2.975173473,-16.933904648,29.515174866,10.799066544,-49.203144073,1.307849288,14.757187843,0.610093057,18.366706848,12.349737167,13.887452126,6.111824036,21.573532104,-14.372782707,-3.550041437,3.140247345,-24.630216599,-29.561954498,-2.226920366,7.375133991,1.117021441,-12.790922165,4.905534744,-4.648360252,-0.013413407,3.491334200,1.896582007,4.250358105,1.051717997,3.232590199,6.244089603,-18.822422028,-0.153035715,8.891536713,-21.622388840,18.087285995,0.370692849,-14.149787903,28.539651871,9.581662178,-37.098228455,-0.121484593,19.295503616,0.188261658,17.369195938,10.865251541,11.824040413,4.624350071,19.432695389,-30.353870392,-4.487035751,1.547906876,-21.326555252,-17.000322342,-8.866963387,4.409802914,-0.506542861,-14.517731667,3.810969114,-6.968958855,7.382379055,2.502460241,-0.516424835,3.360258818,0.937503695,3.061160326,5.706041813,-2.791959286,-2.000632763,8.124313354,-23.528717041,17.186981201,-0.648404479,-7.927787304,28.223526001,6.106974602,-32.666053772,-0.375522435,10.111037254,0.533946633,16.059127808,10.313122749,10.474266052,3.857734203,19.244102478,-12.696787834,-4.647037506,0.756310999,-19.942079544,-9.801078796,-12.751682281,2.368593216,-3.019596338,-11.283889771,3.681886911,-8.200676918,5.698865891,2.172997713,-4.898642063,2.832232475,1.315410376,1.779062986,5.088435173,-1.039193988,-2.818532944,7.133388996,-23.812614441,16.117372513,-1.183838964,-4.131579399,27.697528839,0.341155350,-26.257106781,-0.856610239,4.658690929,-0.501830935,15.374098778,10.951375961,10.219188690,4.128797531,18.548570633,-2.745539188,-1.574652672,0.244704783,-15.264693260,-7.775143623,-16.898399353,1.920771599,-2.249579430,1.344377279,3.358488083,-8.303030014,4.797690868,2.578672647,-21.548065186,1.979069710,0.148407504,0.902225018,4.777577877,0.526711941,-3.640715122,7.528032303,-22.317974091,15.704018593,-2.335637808,0.059426416,27.419769287,-3.826144457,-24.029613495,-0.049403716,4.618928432,-1.098866224,15.768821716,11.929396629,9.868723869,3.410453081,18.111118317,-2.225519896,2.444798946,-0.190443516,-11.723664284,-5.349975586,-21.053855896,0.594072580,-2.304104567,4.420082092,3.842990160,-7.982917309,6.179019451,2.187876701,-36.058597565,1.850125194,0.662793100,1.984994173,4.852735996,-0.294431925,-5.100696564,7.830659389,-11.132515907,14.490533829,-1.887000084,-0.352421343,27.001897812,-11.124710083,-23.694726944,-0.504944503,4.814624310,0.151908934,15.808750153,13.840157509,9.928605080,3.931499958,18.463592529,-0.549953103,1.491141915,-0.065827727,-9.523407936,-4.920373917,-33.473377228,1.714974761,-1.985795617,5.188207626,3.348820210,-8.456544876,5.839471340,1.760040164,-34.370811462,2.144853115,1.292572618,1.858473778,5.197498322,0.386935532,-4.410274506,8.531063080,-0.799819708,14.913774490,-0.554007173,-0.333543330,27.886211395,-11.463715553,-23.242565155,-0.139247581,4.533585072,-0.121390603,16.234153748,14.489670753,9.006931305,3.614158869,17.286838531,1.516345620,-0.282574892,-0.679705322,-7.420489311,-4.156045437,-61.696636200,2.889549255,-1.627028346,4.950969219,3.867937088,-8.103156090,4.344181061,2.425919294,-23.667409897,1.827507854,1.728684425,2.116971254,4.595922470,0.006983461,-5.454512596,8.449299812,-1.583831668,14.037990570,-1.450487733,-1.798617959,27.803323746,-9.628337860,-26.169782639,-0.558435559,3.835719824,-0.341410667,15.702845573,13.794990540,8.677294731,3.273108721,15.526373863,-1.511047125,-3.127424717,-0.744544685,-5.685180187,-5.177343845,-46.028434753,0.277116120,-2.400705099,3.899850845,3.764165163,-8.154099464,3.818993568,2.176632881,-13.574555397,2.173329592,0.563266039,1.848764539,4.378355503,-0.126135975,-7.139244080,8.533153534,-1.131378174,14.034993172,-0.367644250,-3.991646051,28.188930511,-8.089026451,-26.542844772,-0.956806540,3.295413256,-1.022906661,16.009502411,13.133000374,8.591573715,3.174126625,-8.631337166,-1.578833461,-6.284996986,-2.120269299,-3.115108490,-6.039755344,-28.245841980,-0.613099813,-2.881232500,4.696273327,3.768138170,-9.125860214,4.079649925,2.531527758,-2.676095486,2.142606258,1.278230190,2.114445925,4.969744682,-0.017668972,-12.955237389,7.241369247,-2.160647631,13.171141624,-1.408996701,-5.666630745,27.277759552,-6.173427582,-28.448078156,-1.014762759,2.626177788,-0.097928338,15.115359306,10.393551826,7.597909927,2.422012329,3.854526281,-3.725983381,-9.095468521,-1.929725528,-1.020482898,-5.433630943,-17.124162674,-2.126654863,-3.018785715,4.204100132,2.886514425,-9.434374809,3.612102985,1.708710074,0.515130341,2.025447845,1.516970396,1.492056131,4.486995220,-0.219531551,-19.103616714,6.750337601,-3.323955059,13.241841316,-3.136603832,-6.657975197,25.348579407,-0.340422690,-28.774225235,-1.622405648,2.145359755,0.288349658,14.343605042,7.675004959,5.506882191,1.651701927,16.427488327,-4.021763325,-11.190409660,-2.899346828,0.317099631,-6.785255909,-7.291623116,-2.680553675,-3.501456261,2.593141794,2.820893288,-9.521013260,3.686765671,1.456598520,0.320385754,1.099783182,0.508024931,0.982771218,4.408864975,-0.281128794,-22.589025497,5.752197742,-3.872530222,11.752457619,-3.335093260,-6.199164867,24.460407257,6.764438152,-29.404392242,-1.697101951,2.056966305,-0.816246629,13.029955864,7.797964573,4.777558804,1.140173912,15.976107597,-4.296941280,-11.726034164,-2.619768858,1.161009908,-6.270897865,2.195128441,-2.573681593,-4.678965569,2.452044725,2.064373255,-10.720993996,3.528728962,1.419859886,-0.441157699,1.683876395,0.001663762,1.139479160,3.747428894,-0.769819319,-26.439880371,4.871736526,-2.939926863,13.072876930,-5.762085915,-6.270592690,25.094829559,7.276512623,-28.829629898,-1.666365743,1.840770364,-0.025014104,12.243439674,5.540899277,4.793435574,1.505952954,16.305429459,-5.001010895,-13.158383369,-3.024296761,0.825563729,-6.396223068,9.122951508,-1.270022511,-4.526046753,2.177920580,1.884455204,-10.911272049,3.391668797,0.960011423,-0.578854740,1.684916019,-0.052772805,0.459235787,4.138902664,-0.621223271,-2.293613672,6.405186176,-40.988105774,14.784412384,2.937135220,-3.631258726,23.715541840,11.952841759,-26.330444336,-0.799683034,2.457032204,-0.008469959,14.286993027,-10.630783081,9.271387100,3.094335794,19.583013535,-1.973732233,-4.300014496,-1.041586518,-33.486045837,-3.386096716,21.149721146,3.828476191,-2.889809132,-12.465030670,3.443327904,-7.809113503,2.493463755,1.621511817,0.591060281,1.490358949,1.109920859,2.272701979,5.487553120,1.076733351,-3.227130175,6.780204296,-33.354537964,12.100310326,2.610819340,-4.256352901,23.190988541,11.890398026,-26.008106232,-0.863711715,1.756209612,-0.345013946,13.896165848,-2.318814516,7.799664497,3.472381115,18.084047318,-2.404633284,-4.658967495,-0.921876013,-28.141485214,-3.557368040,19.080659866,3.283642530,-3.022762299,-13.678874969,3.016963959,-8.443665504,-4.426717281,1.258322835,1.145088792,1.486509204,0.655791402,2.153245926,5.058543682,0.915665805,-3.626208067,6.659776688,-25.707654953,10.737074852,2.958684683,-3.287230730,20.628463745,9.699398041,-26.639791489,-1.145253539,3.595754385,-0.175584674,14.237683296,2.560527802,8.388243675,2.638674736,16.628742218,-2.333296299,-5.011833668,-1.523589373,-24.388046265,-5.210523129,19.710081100,2.651760340,-3.721599102,-13.641096115,2.481544971,-8.949046135,-10.060230255,0.942840159,0.464692026,0.428889483,0.869543612,1.935101390,5.194149494,0.913425207,-1.805835247,8.012840271,-17.991657257,9.228338242,2.333371639,-2.606034756,10.199939728,12.327065468,-25.425525665,-0.413042068,3.879245281,-0.228913024,13.710330963,4.020924091,8.765381813,3.008317471,17.399246216,-3.883880615,-4.485309124,-0.831742823,-22.330099106,-2.798064709,19.779735565,2.888167381,-2.367256165,-11.519385338,3.464609385,-7.960774422,-16.729608536,-4.926168919,0.658769906,-3.714303970,2.434661865,2.518663883,5.840155125,1.144098639,-0.011953854,7.664186954,-8.623823166,8.372875214,4.033626556,-2.449462175,-9.450902939,14.305999756,-24.710643768,0.592532396,4.948101997,0.218721911,13.737887383,7.548326492,10.941469193,5.120329380,20.985080719,-19.074983597,-2.969430685,0.171623632,-18.597434998,-5.182221889,21.715267181,2.834478855,0.180245161,-6.744532585,5.113025665,-7.163067341,-22.250793457,-12.137245178,2.938844442,-5.060445786,1.807188749,2.875670910,6.205721378,1.273536444,0.413489699,8.633772850,-3.438035727,7.906856060,-13.041872025,-2.696461201,-6.268038750,14.006329536,-22.542070389,1.466892362,6.532485962,0.210102916,14.369138718,9.969224930,11.986607552,6.221807003,21.651012421,-19.302429199,-1.678373456,0.793178737,-16.338747025,-4.360145092,23.106418610,-9.519091606,1.590607047,-3.705104113,5.796336651,-6.315861225,-27.701539993,-12.931023598,3.865846395,-2.844285488,2.939587116,3.965984344,6.846756458,1.425750732,0.533786714,9.161580086,-2.416527271,5.979127884,-22.131967545,-0.645565569,3.539662838,12.982332230,-22.486967087,1.587614894,7.016094685,0.758080244,14.267707825,10.769685745,12.495731354,6.254092216,22.937847137,-3.518404961,-2.206823587,0.836292267,-15.111180305,1.547008038,23.446048737,-28.838197708,1.488896132,-2.910465717,5.901862144,-5.453777790,-33.380054474,-9.913363457,3.696413040,-14.536527634,3.670208931,3.436290979,7.058792591,1.674533010,-0.179973513,9.344627380,-0.858248293,7.244035244,-15.060727119,-2.690628529,13.425278664,13.242377281,-22.206203461,1.416274786,5.523628235,1.353519201,14.435194969,11.567446709,13.744484901,6.463864326,22.123245239,1.553710103,-1.840260506,0.904516816,-16.281431198,-11.686306953,23.926387787,-20.344827652,0.412389100,-0.002941791,6.217435360,-5.812702656,-38.221744537,-6.244929314,3.536686897,-31.380220413,3.335113287,3.224291325,6.797520161,1.990460873,-7.745143890,9.729945183,-0.705709875,5.192901611,-9.142497063,-4.682972908,16.063507080,11.765714645,-25.472742081,0.835710347,6.547020912,0.589499295,14.586372375,10.817920685,12.108731270,5.991260052,21.441473007,0.965268970,-4.538964272,0.023704724,-13.606503487,-19.960838318,23.002141953,-4.814574242,-0.822294295,1.004823923,5.353225231,-6.581828594,-31.305055618,-4.534315586,2.638430119,-29.560705185,3.038663864,2.721681118,6.479547501,1.357313156,-25.814188004,9.586646080,-2.008057117,1.095782876,-3.794308901,-11.299991608,19.929203033,10.883277893,-30.756065369,0.451354355,5.227094650,0.371187717,16.802320480,10.256577492,10.618796349,6.267749786,21.143436432,-0.898042560,-4.914415836,0.266075522,-16.653976440,-9.131674767,22.572584152,1.130343676,-1.170606732,2.255634069,4.808918953,-6.479850769,-21.418514252,-1.756788492,2.995685101,-22.168281555,2.378962278,2.332866907,6.269349575,1.526656985,-18.670707703,7.487410069,-1.935827851,0.064750038,-1.368968129,-19.619489670,24.063972473,9.982619286,-34.555358887,-0.630895317,5.960175037,0.253725231,17.484745026,9.486714363,8.677854538,5.954322815,18.754272461,-2.328585148,-5.614465714,-0.099564217,-20.168069839,-3.564527035,21.258993149,-0.620724142,-2.107334375,1.755628586,3.801487923,-7.059826374,-12.660828590,0.413793325,1.553901434,-14.616264343,1.781122327,1.586166143,5.532100201,0.814085364,-4.851510048,7.442782402,-0.703359425,-1.739596486,-2.110584497,-29.481561661,22.472854614,7.827676773,-38.823944092,-0.848601162,5.488560677,0.138900891,17.414129257,9.626803398,8.408031464,6.117654324,19.507701874,-2.541637659,-6.965419769,-0.199673355,-27.469072342,-4.341896057,20.892551422,-4.213653088,-1.574374318,1.940281749,3.666882992,-7.600158215,-3.011213064,0.620736599,1.171486378,-5.789916515,1.741964459,1.574699044,5.537851810,0.898979366,0.940454662,6.973594666,0.605098784,-4.051635265,-9.543935776,-32.413585663,7.373060226,5.773028374,-43.741157532,-0.873790145,5.649323940,0.502450049,17.642248154,9.593756676,8.472108841,6.287944317,21.554964066,-1.965085864,-5.197962761,0.821985066,-28.861120224,-2.647306919,23.014492035,-6.417012691,-1.219236016,2.625400066,3.917750359,-6.545008183,3.560679436,2.029495478,1.383267879,2.260332584,2.289666891,2.048705101,6.203623772,0.670245290,-3.528371811,9.213394165,3.406516314,-2.452920914,-16.423374176,-21.992221832,-15.439643860,5.384717941,-46.766666412,1.683044434,7.198822021,0.904090762,19.573417664,13.421077728,4.552369595,7.074260712,23.690973282,0.499629200,-4.019087315,2.126875877,-24.348062515,-18.537021637,27.447103500,-6.384094715,0.636216223,5.820517063,5.709079266,-4.532915592,5.037382126,3.416777611,1.681693792,4.744527817,3.486894608,2.086418629,7.070152760,0.587853611,-19.623287201,10.500465393,4.065881729,-1.366415262,-25.537528992,-7.763420582,-21.187801361,-1.096957207,-44.318664551,2.460613012,9.776650429,1.911234736,20.682912827,14.970979691,1.878764629,7.329826832,24.086856842,2.526638508,-4.116346359,1.914726377,-20.597539902,-16.890739441,27.816560745,-7.186493874,2.280841112,6.546496868,5.870448112,-4.475879669,5.738946438,3.488911390,1.838418126,5.395834923,2.632650375,3.281111717,7.379583836,0.085008428,-2.981801271,10.144866943,3.036896706,-2.954406738,-25.150608063,-3.604879379,-4.229580879,-10.966109276,-37.610431671,1.949476838,10.556077003,1.776536584,18.216863632,13.716934204,0.592930496,6.505233765,21.660438538,-4.578746319,-14.529106140,0.964024603,-17.052898407,-7.904399395,25.369136810,-10.297508240,-0.531115294,5.999583244,5.350778103,-5.408143520,5.299951077,3.665489197,-3.640253067,5.292705059,2.797418118,2.714826107,6.661940098,-0.735197365,4.813338280,11.022192955,3.513546705,-1.645462394,-28.996147156,-1.864844441,11.090338707,-18.550935745,-34.456073761,2.079307318,19.452558517,2.963061333,17.422893524,14.083307266,2.444215298,8.292106628,22.281007767,-21.276260376,-24.757772446,3.014293194,-15.095699310,-4.034256935,23.709794998,-10.702123642,-0.860582232,5.544439316,5.796948910,-4.592262745,5.992424011,4.169459820,-12.275880814,4.878486156,2.004791975,2.545734644,7.166434288,-4.435793877,7.126327991,11.217475891,4.586683750,-1.765345812,-28.243751526,1.672049999,25.100776672,-25.743265152,-23.547948837,2.984389067,21.069478989,2.482387543,17.294113159,16.168117523,6.354113102,9.477711678,24.443841934,-22.889190674,-32.255859375,3.362884045,-14.557538033,-4.133761406,23.820722580,-11.443095207,-1.098308444,7.546627522,6.242903233,-2.746923447,6.294267178,4.764400959,-21.229780197,6.471451283,2.826824903,3.877680302,8.072086334,-33.023822784,7.091372967,11.220868111,4.520401001,-2.023365498,-25.288230896,3.373829842,29.222799301,-26.378087997,-18.631530762,3.432965994,11.742844582,1.857607126,18.793804169,16.528860092,9.014328003,9.597535133,22.628358841,1.632344842,-25.201335907,2.984616995,-16.879961014,-18.247121811,24.482860565,-13.166238785,-1.666285396,5.773976803,6.245803833,-2.649360657,6.993554115,4.792244911,-31.163700104,6.378329754,3.250282526,3.842921972,7.595470428,-42.218708038,5.298517227,8.868688583,2.996068478,-2.915732384,-23.295261383,1.227764010,30.504869461,-20.974130630,-19.889106750,3.609427691,9.474850655,1.151371121,17.813699722,14.153336525,8.681427002,7.502629757,21.133893967,0.833667934,-4.163798332,1.521849632,-2.150875568,-28.459760666,21.462770462,-16.534908295,-4.811170578,1.221557856,5.115935326,-4.788115501,6.341578007,4.584548473,-37.398994446,5.290348053,1.806923032,2.506715536,7.230400562,-22.962327957,4.420589924,8.300812721,2.175862312,-5.260567665,-24.774366379,1.549685240,31.174705505,-11.858186722,-19.816715240,1.457860351,8.581158638,0.466302007,16.529542923,13.017554283,6.873136997,6.164039612,20.977983475,1.155619979,-10.345058441,1.450213194,7.801569462,-30.589258194,9.138967514,-19.150379181,-6.480763912,-5.475538254,5.132388115,-6.313187122,5.839500427,3.758447886,-24.292881012,4.961542606,2.043486118,2.096617699,6.343068600,-6.368690968,2.573518276,8.408092499,2.369510889,0.773622155,-40.214466095,5.945430279,29.406797409,-5.062643051,-18.587495804,1.872079372,7.982379436,-0.131080627,16.301740646,12.944689751,8.027376175,5.903105259,20.043039322,2.042245150,-16.072595596,1.025489092,7.246682644,-27.688863754,-8.145356178,-21.276565552,-7.335318565,-6.323924541,5.273756981,-6.938098907,5.981299877,3.095088959,-6.269027710,4.141245365,1.529335499,3.093679190,6.634466648,-0.608291388,-0.751061797,6.719914436,0.488231212,13.544276237,-32.755489349,2.864403486,28.718860626,1.172048569,-20.756902695,-0.115412593,5.962349892,0.208108842,14.514826775,9.793354034,6.990870476,4.156360149,18.206459045,-1.185665965,-23.505855560,-1.025480151,5.522407532,-12.382943153,-12.055142403,-23.207767487,-9.096705437,0.308280319,4.276198864,-7.938885689,5.476805210,2.781330585,-0.415273786,3.568990946,1.710132837,2.766786814,5.984942913,0.358681232,-1.531830907,7.404599667,-1.095637679,13.185454369,-8.696309090,-2.139828920,28.298694611,6.460326672,-24.064708710,-0.585555196,4.519673824,0.457691789,15.415346146,8.690108299,4.368847847,4.297657013,8.668877602,-14.648203850,-28.360858917,-0.960629225,3.601537943,-7.454079151,12.435466766,-28.469495773,-9.942074776,-2.091505051,3.467624187,-8.121119499,3.807691813,3.046153545,-0.556912303,3.038872480,1.223309040,1.590454459,5.568877220,0.292119116,0.259851426,7.886302948,0.070414551,13.940349579,-2.668817043,-2.867295027,29.479606628,9.061857224,-22.756132126,-0.570408106,5.273537636,-0.255820155,15.300564766,9.469614983,4.678778648,3.559844971,-14.388726234,-10.995291710,-29.345542908,-0.886246502,4.081000805,-5.463893414,16.430566788,-29.064424515,-9.705470085,-5.096922874,3.963826895,-8.836639404,3.679821253,2.885660172,0.153726116,3.016865492,1.435744882,2.311255932,6.063967705,-0.223683909,-1.334183335,7.888971329,-0.645252705,13.655560493,-1.179403186,-4.460432053,28.645526886,7.856079578,-23.674621582,-0.597352684,4.829975128,-1.430606127,14.463669777,4.540149689,4.685791016,3.208789587,2.641847849,-2.995585918,-32.700157166,-1.189519405,4.451839924,-5.442299843,11.495100975,-29.020998001,-10.798062325,-7.510993481,3.418523312,-9.149519920,3.721781254,3.085845709,0.460346878,2.994441986,0.804244816,2.227250814,5.963937759,-0.060805172,-1.655103803,7.564164639,-1.227856040,13.476681709,-0.309706032,-4.927000523,27.807767868,8.676387787,-23.930257797,-0.495839983,4.136120796,-2.732845545,15.528515816,3.228539228,5.240433693,3.568689823,17.194292068,-3.074077368,-35.428821564,-1.479006171,3.675129414,-3.740528345,3.464660645,-29.451951981,-11.827172279,-9.367193222,3.760379076,-8.478049278,4.174024105,3.239119291,1.010319471,3.188567162,1.654724121,2.080934763,5.834284782,0.002377724,-1.117428064,7.859663486,0.032544684,14.150921822,1.324826241,-5.818789482,27.863035202,9.863455772,-24.072237015,-0.451517880,3.811331272,-7.172791004,15.695772171,8.352564812,6.032017231,3.722301006,17.820919037,-2.328841209,-37.869155884,-1.105398536,4.393275738,-3.227256536,-9.483422279,-30.501029968,-12.488565445,-4.944064140,3.736839533,-8.036806107,5.442585468,3.827957630,2.094835043,3.135329485,1.401607394,2.145399570,6.084678173,0.163235322,-3.726546288,7.421042919,-0.141823635,14.306175232,2.143899679,-7.393254757,27.149814606,10.217225075,-26.639741898,-0.691769063,2.062681675,-11.236945152,16.082012177,9.029091835,5.973107338,3.060807228,18.192150116,-3.426412821,-41.307701111,-1.944355726,3.578139782,-3.311338186,-17.938728333,-10.178047180,-14.157685280,3.748486757,3.640947580,-8.896217346,4.870622635,3.855992079,1.390393019,4.453817368,1.946705937,2.172588825,6.299806595,0.037014563,-4.024740696,7.884817600,-0.878062069,15.133410454,-2.367782116,-7.375957966,27.121564865,9.733766556,-27.129219055,-0.574222803,2.474833012,-3.886100531,14.928455353,8.981707573,7.397544384,3.319855452,18.831995010,-3.629178762,-43.476451874,-1.865656018,3.028438091,-2.340934515,-28.427244186,-0.360868722,-15.013911247,3.220774174,4.058854103,-9.350616455,4.596625805,3.187222242,1.871911526,4.402585506,2.270720243,2.208616495,6.517960072,0.183629900,0.870681643,6.881958961,0.518627763,-30.064878464,4.961609840,-4.498334885,26.892024994,11.736733437,-23.127927780,-0.325794905,4.423150539,0.654448688,-20.324781418,7.353070259,6.794910908,4.864109993,18.770629883,-1.419892311,-4.328614712,-0.598843753,4.935708046,-2.179398298,19.735157013,3.173328638,-1.305495024,8.198770523,2.931493759,-6.847356796,-54.914089203,1.392437100,1.413468480,1.333219647,0.361801922,2.858850956,5.533905506,2.223540783,-0.522226334,7.320120335,-0.523852408,-24.618928909,3.665215254,-3.252368689,27.117584229,11.092144966,-25.781646729,-0.946844399,3.276439667,0.935895383,-19.708292007,8.636797905,5.914491177,4.030098915,18.132402420,-0.978380620,-5.219463348,0.022941764,-3.880842447,-3.534661293,20.258756638,1.968490362,-2.441619158,7.372342110,2.415036678,-7.778676510,-35.118621826,1.062436938,0.793339074,1.171285272,0.438262761,2.039285183,5.080011845,1.494110942,0.380197614,7.178588390,-0.405332237,-19.463779449,3.249939680,-2.981368542,27.879976273,9.731125832,-25.096220016,-0.842960179,4.591391563,1.296304584,-15.423178673,7.368286133,6.531717300,4.690876007,14.205614090,-2.708801031,-5.752352238,-1.568852544,-19.040058136,-3.273803711,19.166570663,1.961806059,-2.392227888,6.947957993,2.673097134,-7.983484268,-20.304523468,2.030306578,0.550126493,0.245794803,0.089772135,1.611540556,4.917648792,0.846652925,-0.370665550,6.842837811,0.171466842,-14.896784782,2.815113783,-1.835223794,27.426477432,9.276341438,-25.063205719,0.207303166,4.839465618,1.834527016,-13.497972488,8.522065163,8.953594208,4.788444996,8.989684105,-2.316733360,-6.194008350,0.067304701,-36.603652954,-2.590694427,21.357404709,1.148294091,-3.311142921,5.964337349,2.910645008,-7.986301422,-7.360898495,1.400495887,0.680180550,-2.610095024,0.729239464,1.439435363,5.475669861,0.863973677,-0.931625664,6.398280621,0.419186592,-7.589051723,2.471051693,-2.465476274,26.198497772,10.629719734,-25.643789291,0.387380362,5.279644012,1.076939464,-13.538630486,8.566493034,9.000303268,4.045531750,16.915983200,-1.819779634,-5.968297482,-0.170445725,-41.729587555,-8.346149445,22.865602493,1.974431038,-3.899244547,5.486582279,3.376526833,-7.428006649,-4.664794445,1.231330276,0.951693952,-10.523149490,0.908739626,1.296257734,5.666604996,1.100686431,2.999869585,8.162372589,1.996568799,-2.251445770,4.502212524,-2.811189175,25.841362000,11.380297661,-20.888492584,1.566643119,6.532942772,1.152282715,-54.527851105,13.015029907,10.974509239,5.073018551,20.006864548,-2.117258787,-4.023489952,1.327827811,-37.667270660,-24.621274948,42.179897308,-3.515140295,-2.021811247,6.173929214,3.861746788,-6.454210281,-3.718039989,1.065625548,2.075257778,-17.260511398,1.514421225,2.722160578,5.991511822,1.197064042,7.644208908,10.382129669,4.204092503,6.149572849,5.121743202,-0.935607910,17.878454208,13.432792664,-32.562625885,3.644361734,8.389846802,1.522881985,-71.339439392,16.646190643,14.968747139,8.594530106,23.905374527,-22.918270111,-0.427607834,2.814970970,-36.803886414,-29.486677170,54.065059662,-12.766277313,1.489764571,8.880426407,6.093294144,-3.528956652,-2.585455179,2.518418074,4.406137943,-24.647794724,3.035823822,3.486758709,6.995250225,1.482594609,8.633769989,10.873222351,4.983045578,7.065407753,4.685471535,-11.627861977,-0.898821473,13.766462326,-50.379924774,4.284636974,9.087210655,2.134616375,-50.565582275,17.364593506,14.115406990,9.547101021,24.378326416,-14.746847153,-0.390500516,3.732909203,-33.006237030,-7.444662094,47.295875549,-27.300310135,1.943472266,10.661567688,6.514331818,-3.066232443,-1.448370457,2.864084005,4.994454384,-23.659761429,3.893743753,3.452365160,7.954009056,1.825280786,10.201411247,11.992194176,5.886341095,10.929744720,-0.947360218,-33.987236023,4.045957565,11.450026512,-42.334156036,4.989044189,9.257673264,1.116796017,-35.976867676,17.576871872,15.560780525,10.303668022,25.034486771,6.420386314,1.355602026,4.570671558,-44.355327606,11.476766586,43.731655121,-72.939872742,-1.445977330,11.351828575,6.813911438,-2.110426903,-0.684531212,-0.860680759,4.680560589,-12.271695137,4.634801865,4.173160076,8.512326241,1.610861897,9.129392624,13.112691879,5.998847008,15.550849915,-20.266040802,-26.062009811,13.714298248,-0.025061389,-28.656873703,5.128860474,4.644010544,1.964721203,-20.098796844,18.303146362,16.234786987,11.405052185,25.583883286,7.534138203,0.720386863,4.553762436,-62.323280334,-2.504568100,38.777427673,-54.861942291,-3.982710123,11.062283516,7.166552067,-2.080435991,-0.450497150,-10.472164154,4.884412289,-2.740095854,4.277544498,4.282308578,8.926836014,2.159772635,5.119585991,14.310076714,6.951093674,16.955350876,-37.059669495,-5.821204662,9.428041458,-9.267711639,-19.702583313,5.532215595,-1.914041638,3.383799314,0.786247134,18.720060349,18.293191910,12.720636368,25.666219711,-12.115057945,0.530772805,4.476468563,-70.781997681,-16.958633423,32.250991821,-20.825792313,-7.425836563,10.124207497,8.137630463,-1.856006384,-0.198437005,-16.203264236,5.470052719,-1.409324646,5.850501537,4.765841007,9.434605598,2.262395620,-20.859722137,15.001594543,7.255110741,19.127561569,-47.627670288,-0.983046472,8.100808144,-11.649334908,-14.307045937,6.113381386,-7.402919769,3.245279789,14.856655121,18.265264511,17.469409943,12.463460922,25.994731903,-7.020693302,-2.691751480,4.674638271,-62.337646484,3.750839949,28.538850784,-10.213956833,-11.226627350,11.141736984,9.042763710,-1.046159625,0.414133221,-12.854164124,5.520509720,-22.823894501,5.802389145,5.080336571,9.593140602,1.672492266,-14.749286652,13.304016113,6.279400349,19.245845795,-30.807373047,-1.342023134,14.103445053,-5.477844238,-29.324470520,3.742633343,-13.853960991,2.366214752,17.034358978,15.423197746,17.013351440,10.972534180,23.825756073,11.385198593,-18.421564102,2.954552889,-41.046024323,6.283398628,26.414155960,-4.297392368,-16.474338531,9.598420143,9.034373283,-2.802837610,0.345129132,-6.304898739,3.686825752,-44.883426666,4.111649036,3.558767557,8.678237915,1.152881384,-1.136031032,10.182891846,3.945971251,13.876631737,-2.093692064,-0.280433446,24.053758621,2.521539927,-41.455223083,2.644715548,-17.895530701,1.417313933,14.669638634,14.079578400,11.737219810,7.664422035,21.219961166,8.009837151,-50.763237000,2.252172470,-19.297670364,3.385717869,23.935941696,0.287685454,-19.206563950,6.495865822,7.252654552,-4.462748051,1.863583326,0.878633678,-18.156101227,-23.188016891,2.968949795,2.546635628,8.213423729,1.630500555,-4.123705864,11.190271378,3.894913435,12.425052643,6.626686573,4.500346661,11.780678749,8.089373589,-25.752059937,4.210476398,-11.970166206,2.231729984,14.937967300,14.336589813,14.561674118,9.192890167,21.540582657,-7.626945496,-86.689666748,2.007963181,-2.143538713,-3.720825195,26.610731125,6.029288769,-17.604698181,6.669380665,6.504454136,-4.349773407,5.103323936,4.797594070,-48.405910492,-1.213831067,3.769991636,1.917787671,8.753212929,2.465347052,-35.933559418,12.974472046,5.389128208,14.138564110,10.769421577,3.435240746,1.767114043,14.235563278,-16.375453949,5.254228592,-6.840946674,3.214753389,16.001354218,18.912363052,19.145456314,10.038606644,23.661447525,-26.772766113,-74.137054443,3.936238050,5.290751457,-22.647651672,29.595048904,9.112929344,-15.139204025,6.223166466,6.880344391,-3.362237453,7.693507195,7.202216148,-50.103252411,6.632785797,4.801971436,-8.495515823,10.065741539,3.209214211,-10.813322067,11.494276047,3.016078472,13.532402992,3.562169552,-1.238754749,-1.405811906,14.135753632,-18.564710617,2.684236526,-24.110677719,2.587008238,15.015307426,15.212090492,10.828037262,6.586893082,23.453226089,5.824539185,-62.014690399,2.004559278,3.576195478,-24.491975784,25.661071777,6.529276848,-14.759831429,2.716371298,6.327258110,-5.038405418,8.176885605,6.313597202,-22.479930878,5.924331665,3.776994705,-26.093143463,9.381774902,1.841361046,3.009734631,9.412240028,2.231013536,11.294780731,2.654828787,-2.949962854,-35.105960846,12.568740845,-21.414314270,1.651546478,-29.071874619,1.513018489,14.032489777,13.463121414,-1.607663512,5.308226109,24.044504166,10.127253532,-60.890312195,1.931623340,4.978631973,-1.439801216,23.083883286,4.534976959,-12.178530693,-10.210616112,6.145711899,-5.840913773,6.175345421,5.281021595,-3.660557985,6.081957817,4.133556843,1.994142532,9.113894463,0.000059078,4.422294140,10.043882370,3.429644108,11.906205177,2.559709549,-0.698740602,-17.853765488,13.736147881,-20.086116791,2.691065073,-27.641466141,1.873028159,14.700180054,14.525894165,-9.398096085,-1.517269135,24.403484344,10.981695175,-49.690536499,2.711735964,8.320196152,-4.087626934,17.721727371,6.652306080,-9.723367691,-44.359558105,6.076996326,-5.202403069,5.205217361,5.242261410,1.509999037,6.158373833,4.152046680,4.064010143,8.452353477,-2.474897146,7.345454693,11.003914833,6.150977612,13.454436302,-18.560371399,10.705247879,13.745729446,15.268618584,-13.225803375,4.321926594,-22.557022095,2.098065615,17.224306107,18.569715500,-3.407123804,-8.532016754,24.596139908,18.797599792,-36.042518616,4.442997932,12.738340378,-22.714197159,-18.061109543,12.047352791,-5.436373711,-66.971565247,6.984011650,-2.713973284,8.047195435,5.667025089,3.877420902,6.535040379,4.191206455,5.002336502,8.553565979,-21.656831741,8.985724449,11.460281372,6.274271488,13.412024498,-45.775150299,12.985383034,30.656917572,15.442900658,-13.809504509,5.140198708,-17.140909195,3.249985218,17.108074188,18.033632278,7.671059608,-21.245714188,25.800394058,3.253675938,-24.604101181,4.950094700,13.912376404,-6.041685104,-3.681463957,12.101710320,-1.679215908,-62.796764374,7.643026829,-1.848939896,9.503912926,6.191858768,4.644195080,7.773131847,3.425392628,4.584720612,8.689152718,-61.791004181,6.176499844,11.193383217,3.611641407,14.985915184,-12.549554825,3.383351803,30.669857025,6.027929783,-15.624267578,3.172231197,-16.013418198,0.590051055,17.921556473,15.384199142,7.722106457,-37.767925262,21.728046417,-33.996322632,-20.541709900,2.096453905,11.621732712,-12.007826805,21.536668777,10.084288597,-0.625546455,-47.331783295,6.508384705,-4.018412590,6.954570293,4.026783466,3.787816048,6.315747738,2.239249229,3.618587494,7.398705006,-28.819570541,6.326816559,10.676301956,3.389724255,15.692095757,-19.961559296,-1.138236284,31.641977310,-4.212574959,-15.903366089,2.869529486,-17.341306686,-0.530789614,19.872858047,14.689486504,8.422577858,-20.951311111,11.166774750,-48.428363800,-12.198079109,2.287045002,10.058056831,-32.862312317,23.110637665,10.408435822,0.099939011,-30.695716858,6.656964779,-4.493988514,6.778864861,3.395371199,4.781645775,5.961306572,1.992019892,3.326786041,6.728818893,-2.178050280,7.818014145,11.124118805,2.954574823,16.012914658,-30.638364792,-11.818105698,31.838781357,-12.472622871,-16.406267166,2.512375593,-9.180075645,-0.401052028,19.183441162,12.611446381,8.168776512,7.569176674,-13.265767097,-25.658824921,-6.514946461,3.036984444,8.093769073,-48.482975006,26.420740128,7.039259911,0.585264325,-24.815773010,7.045173645,-5.078296661,5.925114155,3.390093088,4.734696388,6.151566505,2.811720610,3.432675123,6.427764893,-0.670296013,2.888898849,9.269701004,1.715964675,15.116909981,-47.556301117,-21.912332535,30.007001877,-10.729735374,-18.991428375,1.540349245,-5.997531891,-2.870383978,17.531620026,2.584162712,7.258540630,3.589544773,17.928314209,-2.273029566,-7.558555126,2.438588381,6.165256023,-37.013309479,22.320585251,4.015041828,-0.969992220,-16.085763931,5.647672176,-6.891731262,5.230979443,3.625597000,3.325774670,5.104326248,2.372167826,2.399530172,6.214107037,0.072478600,-0.416373223,8.113767624,3.778892756,14.183424950,-48.975460052,-26.498895645,29.664907455,-0.194350317,-14.437921524,1.020495772,0.707340598,-17.939649582,17.011245728,-20.461572647,6.204658508,3.713080168,18.231521606,1.498019934,-7.866270542,2.716958761,5.608998299,-18.619987488,22.329101562,4.812789917,-1.742028832,-7.133079529,4.426782131,-7.505630016,5.618706226,3.272888660,2.633502007,4.841621399,1.783916712,2.546483994,6.306588173,0.445825309,-2.154279947,7.385416985,5.291875839,13.740363121,-34.328781128,-40.138256073,29.341865540,10.540925026,-20.280876160,0.147055328,2.582390785,-39.770435333,16.372245789,3.530073881,5.808111668,4.922443390,17.667467117,0.208437517,-7.777186394,1.660556078,5.467445374,-18.755191803,21.900169373,3.133112192,-2.517009497,-1.924480319,3.355870724,-7.705387115,5.543569565,2.805692196,1.806201458,3.537631989,2.010756016,2.460401058,5.825680733,0.614075124,-3.298391581,6.734979630,3.894214153,12.699957848,-23.369987488,-58.230171204,28.314764023,10.950751305,-20.004783630,0.295697927,2.472351789,-34.281925201,15.307197571,5.889923096,4.672400475,4.719314098,17.595970154,1.266964555,-7.462304115,1.909847975,5.847929478,-17.953582764,22.090782166,2.925404549,-2.867852688,2.455045223,2.920348167,-8.445159912,4.959239483,2.548017979,1.418140888,2.879843950,2.057335377,2.297641754,5.219818592,0.436543345,-3.631715298,6.488034248,1.432524085,13.194332123,-15.428951263,-78.717575073,27.157476425,10.608611107,-20.173690796,0.239832953,2.479964972,-14.042697906,16.368253708,6.599510670,4.539346695,4.628541946,16.247671127,2.044358730,-7.056335926,2.448983908,4.847522736,-17.970590591,21.419866562,1.347488165,-3.705550194,2.979846478,3.312835932,-8.893788338,5.829752445,2.669789314,1.101916552,2.699822187,2.472685337,2.191870689,5.429232121,0.369273633,-4.050510883,6.448045731,-0.631999373,13.539259911,-6.188845158,-92.944442749,27.441234589,9.941482544,-19.171630859,-0.388168305,2.002793074,-3.807646275,16.153184891,5.967063427,4.019680500,4.775728703,16.998718262,1.496612430,-6.703094959,2.103382111,3.777569056,-18.646314621,21.775392532,1.063825011,-3.103551149,3.239858150,3.065610409,-9.048704147,5.949001312,2.454540253,0.999252439,2.701744556,2.052856445,2.587126017,5.518014431,0.676172256,0.072728440,1.554955721,3.200626612,16.279268265,2.562949419,-5.453054905,9.207469940,7.440210819,-31.979890823,1.207220912,3.425989866,0.591559649,15.344919205,7.964992046,7.386806488,5.517822742,2.664741755,3.173746347,-7.934093952,-2.038266420,-13.759268761,1.330281138,0.318739474,-20.898458481,-12.584669113,7.552859783,5.698756695,-4.839277744,-0.686536074,4.010327816,2.827574730,-22.019916534,3.181962252,2.308755398,8.089497566,0.630899191,2.508528948,4.756437778,3.731347322,17.107538223,5.257414818,-9.139410973,8.488928795,7.849224567,-43.003028870,1.986923218,3.841707945,-1.412393689,15.334002495,8.160553932,3.682535172,4.562999249,2.735301256,2.783217907,-12.481887817,2.005790472,-10.236053467,1.639785409,-0.300907403,-23.679166794,-10.920750618,8.234634399,5.735041142,-4.741017342,0.832466900,4.479835510,3.219366074,-18.244831085,2.911011457,3.295642853,8.264792442,1.461951375,3.699718952,8.215968132,4.424108505,18.184114456,5.471285820,-9.097351074,6.231317520,3.316899776,-52.821285248,3.125353098,6.970416546,1.549389243,14.133798599,10.723520279,-6.799331188,8.166831017,1.471474409,2.903598070,-21.033805847,1.575215578,-4.446354866,4.003837109,-0.296270967,-20.982767105,-8.981595993,6.175846100,6.465128422,-3.596358061,0.938150644,5.077198029,3.099912882,-13.138731003,3.310563803,2.104796171,8.916162491,1.316416860,-7.167298317,9.516681671,6.344357491,16.193248749,7.903440952,-11.268395424,9.753364563,-4.503954887,-47.932949066,3.536523104,5.553953648,0.124507286,14.229101181,14.523427963,-7.462017536,6.212741852,-0.431663632,5.895311356,-26.622034073,2.354014158,-3.164415121,1.865646720,-0.131932229,-13.320538521,-13.965870857,7.633471966,7.065401554,-2.134528160,3.213072062,5.026264668,3.093264818,-9.805443764,3.706483364,2.325651646,9.367567062,2.232085705,-3.292398691,11.000976562,6.442334175,17.780712128,10.657905579,-27.720010757,15.036824226,-9.623211861,-39.825592041,5.096075058,9.159577370,1.415224195,13.576679230,13.504007339,6.496261597,10.786695480,-8.017244339,5.437417030,-32.360549927,2.883235455,-7.180353642,1.141394377,-1.745693922,-7.886073589,-27.388944626,1.758135080,7.206879139,0.437497050,3.398607254,5.114406586,3.459269524,-6.656358242,4.011670113,3.988025665,9.686587334,2.279579639,6.200187206,11.803943634,6.773779392,18.610828400,12.644215584,-34.323299408,19.828722000,-19.665161133,-37.230819702,4.196253777,11.176466942,-8.211645126,11.835783958,17.863609314,13.422141075,10.348835945,-9.735745430,5.951977730,-35.057430267,4.087775707,-15.565201759,-1.484936118,-5.696916103,0.838657379,-34.285202026,-1.011780024,8.072951317,2.366253376,4.059395313,6.380217075,4.943160057,-2.382088900,5.050859451,4.276053905,10.248010635,2.902235270,9.694298744,11.674872398,6.284833908,16.989246368,10.721973419,-24.057056427,25.174882889,-57.077171326,-9.782933235,5.686457157,6.172814369,-15.999223709,8.508641243,18.593715668,14.007218361,9.330783844,-7.106929779,10.260084152,-34.730525970,4.402428150,-11.451551437,-12.667927742,-4.670630932,3.470618963,-23.711721420,-5.118288994,8.162203789,0.718686879,4.027743340,6.553360939,3.793188334,-0.188835219,3.939362526,5.315886974,10.110845566,2.237920046,11.213564873,10.429124832,4.381494045,16.260023117,8.855787277,-18.200662613,28.242000580,-61.878372192,1.323969841,4.325405598,5.466565609,-5.861128330,0.455211222,17.296003342,13.788434029,9.241169930,-9.272723198,0.333873421,-33.640449524,4.110113621,-7.445270538,-24.893232346,-3.598506451,6.873672962,-6.930175304,-8.026890755,7.162208080,-2.024661064,3.878385305,5.362661362,4.552564144,0.806136191,3.213194132,3.021928072,9.068603516,2.630498648,11.173130035,11.781001091,6.030717373,18.275144577,-0.343210369,-13.774122238,28.134737015,-37.289203644,-5.194890499,4.792303085,-10.110895157,-0.078563116,-6.481653214,20.472511292,15.091654778,9.793297768,-4.904282570,-8.176197052,-27.270582199,4.720421314,-5.024763107,-37.518352509,-0.751855552,9.979238510,-1.494900465,-10.190760612,7.952843666,-1.451907158,4.135217190,5.260728836,-7.479059219,-1.335380435,4.417365074,5.512639999,9.160614967,2.677757502,10.164332390,13.131982803,8.348326683,19.246284485,-7.910738945,-13.064921379,22.355731964,-11.285408020,-14.395645142,6.169073105,-13.226846695,2.508036852,-9.023482323,22.594244003,16.009105682,7.421738625,5.065697670,3.699151754,-31.969249725,6.311875343,-0.376279831,-31.624792099,-21.400796890,0.124616429,4.562314510,-10.638853073,8.432645798,0.014159917,5.322347641,5.771317959,-22.034276962,-3.785756350,3.444661140,6.411768913,9.845711708,3.417535782,11.349655151,13.748921394,9.266291618,19.856149673,0.047107156,-14.453994751,15.210739136,2.934746027,-15.936388969,6.932499409,-9.623712540,1.627639174,-16.503658295,23.129535675,17.812751770,0.605294883,10.803090096,13.526920319,-49.850914001,6.757414341,7.000574112,-23.041009903,-17.780496597,-13.177187920,8.869635582,-16.214115143,9.106525421,0.156318739,5.691440105,5.983729839,-34.051132202,-6.625238895,4.845959187,6.441881657,10.267077446,4.228012562,11.610669136,12.921421051,8.689481735,20.929206848,0.425949544,-18.963262558,9.409879684,15.092358589,-14.768218994,5.707596779,-6.973172188,1.647667527,-22.789300919,23.337541580,17.279563904,-7.605161190,15.414638519,2.139834166,-47.697544098,7.207184315,7.535307407,-27.422851562,10.571881294,-11.348911285,7.344378948,-30.464191437,9.251939774,-0.264681816,5.391825676,3.906533003,-27.448469162,-6.919038773,6.031941414,5.739890099,10.349293709,3.708090544,3.709460020,10.127352715,10.437192917,21.478815079,1.158765435,-18.775779724,10.446999550,17.998405457,-10.601588249,5.738900185,0.184256762,2.521100760,-26.492424011,25.078433990,16.193040848,-18.396028519,24.644372940,-20.492679596,-35.949642181,5.864816666,3.359042645,-40.447326660,25.827661514,11.930783272,9.323218346,-46.795143127,9.253734589,1.111475468,5.068974018,2.081347227,-17.936908722,-9.978099823,6.289264679,2.356286049,10.691602707,3.202584505,-6.052994251,14.154711723,10.267802238,22.061168671,-1.884777069,-13.365284920,18.419908524,19.577661514,-3.485410452,6.609417915,9.789264679,1.817935705,-29.620750427,25.399330139,17.810615540,-25.181039810,26.314197540,-42.822723389,-17.427074432,5.740163803,-2.665038347,-28.033758163,33.675727844,20.115049362,10.397846222,-62.510547638,9.684061050,2.608699322,6.579567432,-0.961926639,-9.973789215,-20.275024414,6.627858639,-20.158962250,11.211422920,4.271310806,-11.833328247,11.098346710,10.115898132,24.597803116,-7.464312553,-10.125496864,20.294559479,20.456411362,-3.166596174,9.000743866,5.794345379,2.707484961,-33.462753296,25.388145447,4.576117992,-24.368749619,26.814985275,-30.268884659,-3.187379122,6.072895527,-7.909906387,-15.579428673,37.080123901,21.204183578,8.923990250,-66.766525269,10.911219597,3.322899103,5.354992390,-1.529010057,1.751993418,-28.970355988,7.470006943,-32.401226044,11.272020340,4.144504070,1.871757388,5.729869843,8.811686516,25.892797470,-13.344837189,-10.325221062,10.450384140,21.759548187,-3.198500156,8.040764809,3.033945799,1.888590932,-39.804317474,23.850849152,-7.195312977,-21.691890717,25.852827072,-12.126748085,0.556939304,6.604357243,-13.990826607,-17.519815445,38.263103485,19.279451370,7.036707401,-63.885833740,10.163962364,1.621162176,5.156530857,-2.980970383,8.630540848,-31.580636978,6.938755989,-18.504514694,10.924807549,3.377867222,-12.380601883,-3.982876301,11.137735367,27.996971130,-18.662015915,-7.097513676,3.669070482,23.037601471,-0.270055979,7.306455135,1.259718060,3.683749437,-46.892162323,25.665033340,16.198686600,-16.830471039,26.132871628,-11.477818489,6.713475704,5.620306969,-19.360271454,-27.350555420,23.556316376,20.051345825,8.455532074,-53.250534058,11.598066330,2.167178631,4.054868221,-4.657907963,9.313458443,-33.621616364,5.811395168,-0.208140031,11.352525711,3.200467348,-13.915441513,-5.653947353,13.440927505,29.674015045,-29.358751297,-23.797075272,3.355020523,24.929510117,4.985797882,6.889208317,6.128673077,4.137691498,-54.118278503,29.113878250,29.494066238,-9.648857117,30.369579315,-16.512674332,-1.437182546,8.002652168,-22.184719086,-46.510635376,18.178960800,22.698146820,5.684549809,-43.165821075,12.361958504,1.473369956,3.873964071,-7.219509125,8.992208481,-17.152215958,5.560864449,6.991073132,11.128505707,3.423949242,9.638105392,-3.997621059,13.961941719,26.268144608,-38.055419922,-22.820386887,12.782243729,22.892604828,1.171476841,6.655102730,4.623263359,2.872050047,-53.467193604,26.411016464,21.244077682,-6.286164284,27.751321793,-17.436445236,-14.513649940,9.197854996,-20.095802307,-49.181846619,27.101333618,18.084606171,-0.325647771,-30.097650528,10.880326271,-0.541267514,2.327892303,-8.249953270,7.779864788,0.594426751,-5.737492561,7.037159443,10.955229759,1.779867649,9.802153587,-3.004938602,13.390931129,23.766592026,-7.418684959,-37.790222168,8.782796860,19.553676605,-3.524281502,5.504246235,1.211298108,1.359119773,-46.942939758,22.116527557,13.525511742,-3.310266018,16.675397873,-8.063524246,-18.299699783,9.659535408,-10.421705246,-32.827671051,38.962993622,15.319419861,-8.652121544,-21.783781052,8.445654869,-1.088094711,0.530585349,-6.852499485,6.512668133,6.022203445,-28.401662827,5.932688236,9.475361824,2.063190460,11.067053795,5.699088573,13.015961647,21.275892258,11.878513336,-46.901512146,-2.084921360,17.852233887,-3.992818356,5.191002846,-1.375456214,0.886975050,-40.831375122,17.119356155,7.671598434,-0.823901355,5.085948467,-2.412136316,-10.594584465,10.467347145,-0.131469563,-15.456167221,42.980022430,12.661523819,-13.011816025,-17.472774506,8.451857567,-2.126464128,-2.924516439,-3.338771820,5.515675545,5.576468945,-48.982349396,4.959652424,9.524102211,-2.723117352,10.633905411,13.610020638,11.274972916,20.125938416,14.438232422,-48.961238861,4.763274670,16.979843140,-9.248807907,3.926261663,-4.753942966,-9.841897011,-39.707363129,12.364266396,4.294738770,4.488045692,-6.426341057,9.865956306,1.234121084,10.080355644,8.247714043,-12.169327736,40.060386658,9.142821312,-15.910744667,-16.909542084,7.413403034,-1.509852529,-6.107301712,-0.415041119,5.362113476,6.770460606,-36.885597229,5.878544331,9.696673393,-21.061033249,8.849207878,13.779575348,10.863237381,19.044046402,14.151420593,-44.783630371,6.254205227,15.502096176,-9.790452957,3.206370354,-7.194706917,-27.486463547,-32.756877899,-1.888707995,1.425987720,9.845014572,-5.872852325,16.776062012,5.218185425,10.359519005,11.217295647,-10.439555168,39.005077362,11.186616898,-17.188491821,-16.480676651,7.270905495,-0.609045565,-4.039182663,2.777968645,6.503344059,6.605291367,-12.524862289,5.357717514,8.919435501,-41.617935181,7.928139210,13.670589447,7.463419437,17.347713470,10.344923973,-40.659660339,7.928641796,13.410292625,-7.920806408,2.760998487,-11.620894432,-22.691326141,-16.513578415,-24.729116440,-1.295650363,7.628429413,9.293898582,16.681446075,1.261019945,9.353957176,9.658953667,-13.947891235,32.160800934,9.835252762,-15.545216560,-15.684352875,6.927441597,-2.074006557,-4.227753639,5.395039558,5.453527451,5.667140007,2.248425961,4.409765244,8.752569199,-40.538654327,5.137977123,12.052801132,6.494995117,15.756882668,5.916584015,-35.786071777,18.646125793,10.951267242,-14.867346764,-4.115546227,-14.601459503,-17.891708374,10.555926323,-27.636011124,5.658793449,6.228664398,2.841658831,12.753538132,-0.807233870,7.455580711,8.713140488,-24.122009277,26.813524246,6.759213924,-16.899906158,-18.795585632,5.992227554,-5.629105568,-4.116669178,3.996134758,4.584519386,5.903231144,0.557066262,4.143908501,7.869000435,-11.284192085,4.633193016,11.484904289,4.124756336,16.583347321,5.927014351,-30.464950562,28.617927551,5.628622055,-17.585876465,-10.524852753,-17.755573273,-11.955329895,16.287496567,-25.140520096,8.680647850,6.371156693,-14.145195007,13.496582031,-0.224440336,5.235982895,6.189229965,-29.367073059,24.806243896,8.662528038,-14.356392860,-20.998908997,5.989051819,-4.540699959,-1.630430698,3.095757484,4.241862297,5.386989594,2.686973333,3.590979099,7.166170597,-0.604426801,6.355835438,11.543348312,3.321585894,16.226970673,0.664655030,-25.834960938,31.595106125,3.171609879,-19.138477325,2.143471241,-19.767333984,-3.399333477,15.423759460,-34.039699554,10.112989426,6.514884472,-24.880189896,12.553290367,-0.278867424,5.599185467,6.930695057,-35.326423645,28.382255554,9.892086983,-12.176117897,-23.054124832,6.539762497,-4.551050663,3.273199558,3.019686937,3.525754213,5.558359146,2.823985815,3.549963236,6.647669315,0.072676547,7.206133366,12.474855423,2.970207930,15.931264877,-4.189994812,-18.458223343,29.740188599,-2.743725300,-19.811576843,3.332793236,-21.551439285,0.893921912,16.376735687,-40.731853485,10.315217972,4.764853001,-19.978439331,13.692109108,0.407350510,5.390429497,7.506724834,-41.431831360,28.373250961,10.448129654,-9.137084961,-23.180130005,7.018060684,-4.433475494,3.094166994,2.270098209,3.937894583,6.087965012,3.013522625,3.306371450,6.534566879,1.163340449,5.722164631,11.643281937,3.041792631,15.787993431,-11.898442268,-12.980804443,33.624717712,-5.018844128,-21.406492233,2.603662729,-24.928710938,0.771835208,15.886782646,-37.318470001,8.646482468,1.720760107,-5.935164928,12.009687424,-1.506257653,4.166973114,6.420604706,-33.888706207,25.412759781,8.969498634,-10.195677757,-23.163024902,6.583575726,-4.868502617,3.678677797,2.424919367,4.283154011,5.648913860,3.080330372,3.199479103,7.061821938,0.949464202,3.884221077,11.111943245,1.876974344,15.251413345,-14.786284447,-8.826349258,32.055641174,-5.861620903,-21.686801910,2.228003263,-28.164573669,1.418531060,14.936287880,-33.849533081,6.789618492,-2.048650980,-1.427230120,11.379370689,-1.948112965,3.215456009,7.274082184,-18.406488419,21.741580963,7.722145557,-12.092612267,-21.552343369,5.955075264,-5.777416229,5.263642788,1.479191899,4.609897137,5.558156490,3.311365604,3.107280731,6.165310860,0.551467299,4.135957241,-3.793189287,7.856183052,19.648523331,2.661055326,-22.357522964,34.859867096,-24.730470657,-55.346176147,3.870193720,4.742265701,0.847976148,17.962455750,12.959390640,-9.491508484,6.038619041,13.102433205,7.461714745,-33.027618408,-11.232772827,-17.845357895,-22.734462738,27.824979782,-1.469968796,2.311828375,-15.276672363,8.629428864,-2.963071823,9.151966095,5.263345242,4.956859589,3.984210730,5.448841095,3.699086428,10.247051239,2.353244066,2.276768923,-4.078399658,5.884653091,17.700204849,8.947850227,-31.231746674,34.645835876,-26.367403030,-36.423057556,3.731130362,7.187918663,1.842607617,19.062520981,12.322597504,-10.015832901,3.262843132,12.504187584,3.526422024,-25.310436249,-14.775748253,-24.680583954,-24.260662079,27.719469070,6.072667599,1.100202203,-16.945608139,7.909131527,-2.843832970,8.739280701,5.262502670,4.735224724,1.998763680,5.138957024,2.757402897,9.713001251,2.940380573,1.745992064,-3.974788427,6.252606869,17.821552277,8.840776443,-38.197105408,34.084804535,-18.955354691,-19.566038132,3.270883799,5.137722969,0.908871412,20.134044647,13.945801735,-10.507128716,-1.739705563,13.687660217,5.329881191,-17.123222351,-14.862429619,-33.020988464,-25.966596603,25.905563354,7.819553375,2.301109552,-19.018764496,7.768546581,-3.943038702,8.977708817,4.831849098,3.300540924,-2.977106810,5.160779953,0.658690572,8.947885513,2.856489182,-8.707137108,-1.777931094,6.018373489,20.045566559,11.658351898,-46.249378204,31.308017731,-1.342904329,-11.346486092,3.870513439,3.777040005,0.991294622,20.646614075,14.090065002,-12.287507057,-7.647691727,14.364988327,5.519884109,-10.457399368,-16.802209854,-31.683650970,-27.306688309,25.855762482,8.123724937,3.451691866,-18.834524155,7.674384594,-3.107264280,7.905834675,4.980487347,-3.331660748,-5.801123142,4.409022331,0.931786597,9.007807732,1.869023085,-24.515361786,2.506879807,5.017722607,19.756340027,10.357785225,-30.055917740,26.300769806,9.094029427,-17.433961868,4.251207829,5.491117477,0.309391022,19.796588898,14.487408638,-24.372535706,-12.007289886,14.718853951,2.476072788,-0.228232309,-17.383504868,-25.427070618,-21.909513474,26.805440903,5.973526478,-0.097357064,-12.238891602,7.744494438,-2.538422585,8.528553009,5.316944122,-11.389904022,-7.800494194,4.856881142,2.057268620,8.633507729,2.327473879,-25.430507660,4.667932510,5.686439514,18.839342117,7.771575928,-26.843446732,23.475835800,8.162810326,-32.354007721,4.602108955,6.854813576,0.732235968,20.977407455,14.393227577,-21.869438171,-19.261896133,12.327128410,8.423165321,5.896683693,-18.044462204,-16.191703796,-17.600437164,26.696264267,7.938088417,0.439806789,-6.999479771,7.654911518,-2.184643745,8.859871864,5.832195282,-21.682554245,-9.913761139,5.316571236,3.081551075,8.783517838,2.083238840,-16.984958649,7.946414948,7.443427563,20.150453568,3.030645847,-25.149330139,19.744243622,1.171548963,-43.224128723,6.007821083,9.754016876,-0.729635954,20.957450867,17.932113647,-9.257220268,-21.172178268,7.286607742,9.602418900,-1.545058966,-17.411533356,-11.819793701,-13.501448631,25.678327560,13.605807304,-9.555130005,-7.873095512,9.080548286,1.095691085,10.534543991,5.517339706,-27.394483566,-12.588105202,5.336319447,4.096735001,9.991438866,2.957652330,-9.476586342,14.191908836,11.204924583,16.014707565,-2.355987310,-14.738308907,15.100206375,-7.752704620,-39.479465485,7.485041142,12.678997993,-12.916939735,22.368818283,22.064098358,1.303984523,-31.028791428,11.715602875,12.311837196,-13.415920258,-16.348117828,-8.560475349,-8.710030556,26.198425293,17.618698120,-22.530357361,-13.969014168,9.896077156,5.047626495,12.128788948,6.550878525,-34.731712341,-16.029966354,7.040566444,6.108085632,10.960632324,3.226596832,0.414992422,14.485512733,10.810058594,12.192869186,4.550013542,-8.241100311,11.788127899,-21.065631866,-32.635402679,8.075407028,12.325625420,-13.546380997,21.836730957,22.806045532,7.196420670,-45.988147736,10.306098938,13.640841484,-25.593349457,-15.026959419,-6.587572575,-1.288106441,23.361696243,20.278528214,-18.935380936,-21.886249542,9.705381393,4.431938648,11.812392235,7.664183140,-26.608045578,-17.511976242,6.343768597,6.824917316,10.528354645,3.819453716,6.463593483,9.116549492,8.658228874,13.854510307,16.925125122,-8.408614159,13.442013741,-37.021167755,-17.675584793,8.950531960,10.861742973,-6.768899441,21.090711594,23.410146713,7.958691597,-43.456123352,5.440193653,-3.764673710,-25.264646530,-16.960886002,-7.720544815,0.291841090,19.554105759,18.260173798,-14.437336922,-35.542510986,9.468726158,3.430908442,12.195622444,6.710808754,-9.092603683,-17.601966858,6.936810970,5.564924240,10.295773506,3.409049273,8.160082817,3.123481274,9.078565598,16.381992340,17.595331192,-11.877563477,14.648687363,-50.266502380,1.787030101,7.005445004,16.972902298,-0.915890396,22.440298080,20.181375504,10.703228951,-34.804645538,-0.783350646,-25.472951889,-2.583263397,-17.984054565,-7.773161888,-8.284996033,8.337701797,16.908298492,-6.704954147,-42.210632324,9.501236916,2.626944304,12.053238869,6.496742249,5.203596115,-15.560640335,5.809857845,-2.954525471,10.280643463,3.038360119,10.783981323,-0.839157104,11.059296608,18.160760880,18.640998840,-15.682095528,17.537288666,-47.908946991,12.518983841,8.633019447,24.829202652,1.448830843,24.411396027,24.313255310,16.849931717,-24.923091888,-5.316776752,-36.007186890,8.325169563,-17.227722168,-5.818923950,-29.135410309,-15.003427505,9.709571838,-0.896252334,-40.990100861,10.062026024,3.114975691,13.181797028,6.844664574,7.941401482,-12.133400917,7.044558525,-16.084142685,10.300107956,4.038403988,15.688372612,-3.680726528,12.031478882,22.437927246,17.440654755,-17.209905624,13.626683235,-37.007369995,16.835851669,10.460290909,27.445833206,3.557313204,24.605966568,22.279401779,19.069368362,-11.662096024,-12.783992767,-35.406593323,4.513693810,-14.693326950,-5.117384911,-30.968259811,-20.017955780,-12.988869667,-1.066371322,-33.180114746,10.803775787,4.346913815,14.042532921,7.527126312,9.214220047,-9.273588181,6.739153862,-31.723373413,10.699326515,3.979242802,15.184569359,-8.519083023,11.000065804,22.535360336,17.134437561,-25.789674759,4.163253307,-29.201591492,14.234195709,9.670928955,15.836700439,3.301340818,24.253326416,18.278890610,17.746513367,-4.409532070,-16.406757355,-19.400863647,-3.685298443,-12.394524574,-1.944127679,-41.439064026,-20.175224304,-5.970422268,-4.743615627,-16.182998657,10.108028412,3.548142910,13.105098724,7.064457893,8.697760582,-8.270755768,4.610095024,-16.324426651,10.914812088,3.230021715,8.803045273,-7.416913033,12.779348373,22.367259979,12.045372009,-33.358692169,11.217718124,-24.296770096,12.971257210,6.922222614,14.127161026,0.475605726,24.120016098,12.923127174,16.975708008,-0.261551470,-13.964654922,-24.135051727,-7.232246399,-10.168471336,1.225150704,-57.758708954,-21.305263519,10.636196136,-9.027679443,-1.394322872,9.975309372,2.750765800,13.402118683,6.526576996,8.178281784,-8.603576660,-7.515697479,3.351569414,11.008096695,2.920180082,-4.740776539,1.054770231,15.540452003,24.465866089,-12.238101006,-53.598770142,22.064847946,-15.628639221,15.258805275,5.360620022,17.610221863,3.182327986,23.366708755,11.931765556,3.587600946,-2.276973724,-10.090133667,-32.273181915,-8.570614815,-6.348720074,5.918092728,-37.973827362,-27.068429947,24.876504898,-10.492280006,5.192591667,11.053324699,4.307734489,14.018743515,7.817326546,10.723194122,-8.406880379,-19.169355392,6.959709167,11.261217117,3.440948486,-2.290174961,11.190367699,18.258022308,24.774694443,-33.985588074,-81.807723999,28.524278641,0.419909179,17.845035553,-8.566267014,21.733913422,1.796416879,24.119232178,5.284314632,-12.446043015,-1.424222112,-6.699447632,-19.107892990,-6.226139069,-6.216540813,10.972020149,-19.620569229,-17.376621246,26.591484070,-11.428520203,3.299226046,10.904954910,4.869927406,14.454214096,7.665986061,11.066540718,-10.723065376,-28.094392776,7.024863720,11.514786720,3.754238129,-9.103817940,18.511804581,17.150085449,23.832965851,-21.497392654,-69.853836060,22.962285995,11.069693565,8.633883476,-20.583318710,19.790876389,-6.011030197,20.950456619,-3.623749971,-16.940126419,-5.746716022,-14.463891983,-7.376191616,-1.165176749,-8.276814461,11.438004494,7.616604328,0.995234013,23.870227814,-8.489878654,2.761771202,10.113062859,3.897005081,11.568064690,7.087084770,10.988403320,-25.473983765,-38.008018494,7.888164043,10.992714882,3.100204945,-17.273983002,19.559904099,16.602529526,25.003499985,-3.899973392,-46.387786865,2.170418739,19.919853210,-7.753514767,6.440036297,15.437714577,-12.791357994,16.359428406,-11.427242279,-2.843222857,-8.692037582,-27.562961578,3.689211607,8.253149986,-10.426219940,3.611916304,8.741769791,-0.921481252,22.296155930,-4.858593941,1.805339932,10.905783653,3.197434187,10.982777596,6.205379009,10.429482460,-41.135902405,-37.867881775,7.116761208,11.325958252,3.604506969,3.119575024,18.846895218,15.193141937,25.788984299,-9.679822922,-28.425298691,0.368851930,23.880010605,-16.234657288,8.865319252,13.988650322,-17.284729004,6.294541836,-18.275564194,6.012158394,-12.176271439,-36.221328735,7.842505932,2.812940598,-12.587354660,-6.903827190,-2.687535763,1.162181497,20.959318161,-0.317913681,0.911536217,10.948798180,2.812329292,10.739575386,1.973194480,9.937981606,-36.367141724,-16.173870087,6.809634209,11.024352074,3.764495611,15.024464607,20.131740570,14.531989098,26.472988129,-17.435977936,-18.601148605,13.098278999,24.669773102,-21.588802338,6.535642147,15.467150688,-26.187458038,-13.078812599,-25.792085648,10.793120384,-14.588446617,-38.549545288,14.285446167,-0.182286918,-13.738471985,-17.843307495,-13.937789917,5.456232548,17.720693588,4.619554043,1.574495912,11.069761276,2.983438730,10.507114410,-1.096176863,9.807606697,-25.338474274,3.814090014,6.115675926,11.302672386,1.922746778,16.356496811,19.494939804,13.796669960,27.022472382,-30.895601273,-10.476379395,13.866299629,23.483196259,-10.431210518,0.750965893,13.415616035,-15.395924568,-16.277587891,-39.502204895,15.360441208,-16.828262329,-25.008724213,14.375119209,-2.972338438,-15.072092056,-27.830633163,-5.498496056,3.695352554,10.287579536,8.206753731,2.080121994,11.012086868,1.851719499,8.430663109,-4.430933475,9.876205444,-15.769075394,5.963699818,6.275592327,10.308945656,1.210661888,15.893217087,17.887470245,11.572990417,26.274179459,-24.255590439,-9.786616325,13.906909943,18.119127274,-8.739649773,-8.748637199,12.410576820,-1.208222151,-14.172946930,-39.277545929,17.549423218,-18.982912064,-19.560926437,13.022877693,-8.298377991,-17.526250839,-29.505390167,2.790728331,3.637444973,2.561584473,8.791216850,1.992904305,9.718346596,-0.498204798,7.769774437,-8.082383156,8.650171280,-5.031272411,4.830400944,6.130537033,10.014170647,0.685729444,14.219882011,17.563795090,8.829462051,25.227235794,-8.725106239,-13.919930458,18.178888321,18.722923279,-15.564700127,-16.018739700,10.197540283,1.560603380,-24.813619614,-18.501024246,18.184980392,-20.409503937,-29.267597198,13.268434525,-11.008141518,-19.020633698,-25.363868713,8.183684349,10.966785431,12.347170830,8.276713371,0.262318194,9.600687981,-0.016472409,5.613385677,-13.467691422,8.016860962,-0.602358162,4.787233353,6.362011909,9.990546227,-11.984460831,15.256361008,18.066038132,8.283613205,25.721698761,-3.385967255,-15.286538124,16.515844345,17.682287216,-19.197664261,-13.564970016,9.647187233,2.601443052,-33.355281830,-7.328118801,12.455601692,-21.097856522,-25.414003372,14.877748489,-13.514825821,-18.021608353,-19.230440140,11.764286995,16.621528625,17.305509567,8.181094170,0.789611220,10.022553444,1.404122353,4.852283478,-15.160073280,7.521845818,5.334047318,4.983724117,5.844574928,10.441040039,-42.357677460,13.563002586,18.062889099,9.227639198,25.911872864,-1.255828261,-9.343823433,11.872295380,16.789041519,-25.529489517,-0.927813292,8.386170387,4.056710243,-38.244361877,-0.586386025,4.723896503,-24.362573624,-12.679794312,11.790895462,-19.131046295,-20.180740356,-15.295341492,8.238663673,15.778215408,16.248060226,7.104420662,1.922548175,10.062129974,-0.036382813,1.392230868,-18.597986221,7.224987984,6.693406105,4.480397701,5.471243858,10.257416725,-35.690063477,11.228948593,17.147069931,7.413124561,23.292791367,1.063189507,4.036327839,14.988741875,6.596523762,-34.813034058,5.590475082,7.264335632,3.504090786,-35.196784973,8.845952988,2.365128279,-23.698354721,-3.158571959,6.559118748,-25.403062820,-19.569471359,-12.527013779,7.595659733,13.778537750,14.444990158,3.944817066,1.930899858,9.076078415,-1.732113361,-5.378317356,-21.904338837,5.473268986,8.416379929,5.644498348,4.824093342,9.971516609,-20.654890060,8.195208549,16.444757462,5.206715584,21.533655167,4.292978287,4.265314102,20.110841751,-3.169912577,-42.833686829,6.090048790,6.554346561,3.201243639,-29.729156494,16.942626953,2.833682060,-20.830905914,-4.565908909,1.064505935,-28.974405289,-18.061895370,-5.738917351,3.756905317,11.888181686,13.469861031,5.562762260,-2.892048836,9.297402382,-2.671409845,-6.485051632,-24.551422119,5.176769257,9.530914307,5.041156292,4.949265957,9.588920593,-3.104238510,9.737585068,15.529290199,5.600343227,22.902606964,6.990917206,4.924494267,23.060514450,4.850817204,-49.425323486,5.879217148,5.831501961,2.949713230,-26.265764236,18.026353836,2.856960773,-16.306379318,-3.388818026,-8.194504738,-35.281261444,-16.600095749,-1.914707899,-6.113137245,11.851446152,13.723522186,4.802973747,-3.764968157,9.144776344,-3.120313644,-6.271793842,-26.276460648,5.673791409,9.910416603,5.982285023,4.391134262,9.086515427,0.324946731,10.754001617,15.561005592,4.937431335,22.152547836,7.012645721,4.888786793,28.606243134,11.960978508,-54.318717957,5.602380276,5.730379581,4.087906361,-23.203510284,18.232496262,6.312165260,-11.771944046,-0.142096266,-14.974802017,-38.406452179,-15.905743599,3.934698105,-21.756912231,12.652314186,12.943176270,4.864377499,-9.280160904,9.018605232,-3.274164677,-4.140291691,-27.976362228,5.704961300,10.447257042,5.593636513,4.605094433,8.924574852,0.691914558,9.615369797,17.497430801,-14.541460037,23.339570999,15.037951469,-30.618511200,3.782977343,15.215995789,-41.558528900,7.590682507,12.671849251,3.501781225,25.201322556,15.334446907,-0.873171151,-90.547981262,33.609577179,17.582166672,9.644776344,-24.879707336,-31.005681992,-42.772247314,32.511985779,-13.806421280,9.872083664,16.719213486,10.824729919,2.849584341,-29.182163239,7.583178043,-8.279285431,10.358194351,7.871209621,5.077764511,11.406708717,2.982528687,4.831986427,14.165311813,-6.417209625,23.393321991,-2.177342415,-8.576858521,10.720161438,11.247688293,-49.691448212,10.203816414,10.923831940,4.090877056,23.972417831,15.804180145,-0.480762839,-77.794815063,33.113185883,17.693378448,9.486750603,-29.471614838,-23.658826828,-39.765216827,31.655393600,-10.137471199,8.244151115,18.511688232,10.261108398,1.488807321,-25.701044083,7.749199867,-28.126764297,9.282703400,8.004455566,4.006443501,10.984772682,2.286697149,2.864446402,12.814765930,2.179081678,21.132202148,-4.224425793,4.397380829,19.766183853,6.059364796,-50.673854828,8.826717377,14.245491982,3.965102673,22.166790009,15.054374695,-0.877449691,-64.407638550,30.684551239,13.204417229,12.506913185,-34.217895508,-11.791921616,-38.322540283,28.933801651,-12.237027168,6.102449894,12.698698997,9.840040207,0.642875314,-19.344244003,7.382668018,-51.303092957,8.418453217,7.444146156,4.224832058,10.215808868,2.751438379,2.260867834,11.722411156,5.328240871,18.375513077,8.934127808,2.337632656,31.491060257,-8.599579811,-46.984951019,7.182864189,11.730774879,1.248382568,22.845832825,-18.207361221,-2.165516138,-54.667213440,30.277013779,10.542703629,9.112257004,-38.640037537,-6.442955017,-25.649820328,27.933502197,-7.025498867,3.844922781,7.144608498,9.872847557,0.455924600,-12.256575584,6.495553970,-42.795310974,8.447105408,8.143487930,3.567939520,10.103920937,3.424425125,-0.770491540,8.686577797,8.266105652,23.382675171,2.913038731,-4.072803974,36.466453552,-20.902496338,-46.432498932,8.426225662,12.996023178,-2.738750219,25.164995193,-14.010364532,-4.702750683,-39.543571472,30.419162750,9.520221710,-12.047024727,-39.800579071,-3.950330973,-12.834629059,28.093927383,-11.124991417,0.360982120,-14.257910728,9.981825829,0.309260726,-5.022326469,6.714909554,-15.582352638,9.269230843,7.784806728,4.185122013,10.476115227,3.823497057,1.224720120,4.764731407,11.436973572,26.000726700,-10.190282822,-12.839222908,38.230735779,-22.394548416,-63.178516388,8.158135414,15.216419220,2.905224800,26.108621597,13.707572937,-8.334314346,-32.103954315,29.025459290,10.460842133,-52.823001862,-33.571182251,10.908051491,-3.117727757,28.535886765,1.373352766,-8.622450829,-43.726573944,9.738262177,1.000982881,0.474580228,7.644358158,4.290542603,9.449335098,7.521017551,8.012406349,10.744058609,4.516282082,-2.645989418,-15.064521790,12.444292068,23.875827789,9.984660149,-33.631450653,38.897514343,-16.193323135,-59.421291351,6.959951878,15.003429413,0.239694312,25.653367996,10.471160889,-18.496898651,-31.700674057,31.848562241,16.497413635,-30.369688034,-28.321405411,13.909368515,3.316333055,30.594505310,5.190244675,-20.922830582,-58.667701721,9.899963379,1.815084219,3.074131250,7.619115829,6.340500355,8.999199867,8.431761742,8.236121178,11.175361633,4.051667690,-9.588872910,-36.577316284,12.270644188,25.573684692,20.831186295,-51.654182434,40.837524414,-3.580018997,-50.386550903,8.427357674,13.708764076,0.052989166,25.998407364,6.647986889,-41.221923828,-25.865554810,29.368333817,5.678818703,3.969034910,-29.724191666,16.428390503,8.523254395,31.385581970,10.033542633,-26.013252258,-60.620086670,9.885038376,2.278037548,5.294651508,8.152854919,6.888886929,10.138356209,9.516456604,7.164921284,11.186470032,4.074333191,-25.865718842,